%YAML:1.0
---
myHogDector: !!opencv-object-detector-hog
   winSize: [ 64, 128 ]
   blockSize: [ 16, 16 ]
   blockStride: [ 8, 8 ]
   cellSize: [ 8, 8 ]
   nbins: 9
   derivAperture: 1
   winSigma: 4.
   histogramNormType: 0
   L2HysThreshold: 2.0000000000000001e-01
   gammaCorrection: 1
   nlevels: 64
   signedGradient: 0
   SVMDetector: [ 1.26070753e-02, -3.32172513e-02, -1.48217613e-02,
       1.39746191e-02, 9.59151983e-03, -2.88555343e-02, -1.99646782e-02,
       -4.81512537e-03, 4.70281914e-02, 4.63914089e-02, -9.47733317e-03,
       2.75229588e-02, 1.55854337e-02, 2.53620129e-02, 2.61929166e-02,
       3.58705572e-03, 8.57045036e-03, 1.78858079e-02, -1.83365121e-02,
       -7.24870060e-03, 2.61647720e-02, 4.59472463e-02, 5.75459749e-03,
       -7.03086331e-03, -3.91267650e-02, -4.77691963e-02,
       -1.49268680e-03, 1.19705852e-02, -1.27476742e-02, 2.05819383e-02,
       3.28831859e-02, -1.61725301e-02, 2.32192520e-02, -2.09387746e-02,
       -8.46801139e-03, 1.16895912e-02, 1.47600723e-02, -7.51816761e-03,
       2.88472995e-02, 1.00807818e-02, 2.22971793e-02, -1.40374135e-02,
       5.92645723e-03, -6.11326715e-04, 1.22444341e-02, 2.46321633e-02,
       1.50226185e-03, 3.40289995e-02, 1.16500780e-02, 9.39928833e-03,
       -2.46492624e-02, 3.72924306e-03, 1.28538888e-02, 1.01138260e-02,
       -5.41889167e-04, -7.55652692e-03, 5.17790904e-03, 4.38784482e-03,
       3.60106416e-02, 1.36774834e-02, -4.01897728e-03, 4.04192088e-03,
       1.80567447e-02, 2.23231502e-03, 1.47977145e-02, 1.43743763e-02,
       -2.06332211e-03, -2.26448383e-02, 2.98971892e-03, -9.00441501e-03,
       -1.17149679e-02, 1.97874550e-02, 1.68356504e-02, 1.84433756e-03,
       2.79167183e-02, 9.04013682e-03, 2.45843045e-02, 2.92984266e-02,
       3.01119294e-02, 2.91063581e-02, -1.21436007e-02, 2.44286656e-02,
       7.76009215e-03, 3.52324545e-02, 3.64852604e-03, 3.56994085e-02,
       4.00388651e-02, 4.22441363e-02, 3.03658824e-02, 4.33189534e-02,
       -8.21538735e-03, -4.64797718e-03, -7.10802618e-03, 4.91819857e-03,
       -1.00429477e-02, 2.18878146e-02, -3.52955190e-03, -3.18986899e-03,
       6.07406674e-03, 3.03198904e-04, -1.56104062e-02, -1.21925827e-02,
       -1.63425971e-02, -1.00750076e-02, -5.51536726e-03, 1.15069654e-02,
       5.82048856e-02, 4.98603238e-03, 3.78192030e-02, 2.44153589e-02,
       1.88936107e-02, -3.62871727e-03, 3.23327025e-03, 3.08745131e-02,
       2.39314884e-02, -7.31037557e-03, 1.73784085e-02, -2.80685835e-02,
       -1.70779638e-02, -1.57706067e-02, -4.07573581e-02,
       -1.80956703e-02, 1.16652790e-02, -9.51773021e-03, -1.98530443e-02,
       -6.11560373e-03, -1.27212959e-03, 3.33925150e-03, 1.60541218e-02,
       2.03887355e-02, -2.63389777e-02, 2.51077749e-02, 1.28723569e-02,
       4.96349148e-02, -6.44304964e-04, -5.53453267e-02, -3.86859588e-02,
       -3.22295837e-02, -1.89233888e-02, -2.90195290e-02, 3.87337171e-02,
       4.13172273e-03, -7.40315719e-03, -3.02998219e-02, -2.79401895e-02,
       3.86008760e-03, -3.19331535e-03, -8.15576466e-04, -6.71060150e-03,
       -2.44389381e-03, 2.33759116e-02, 8.36931262e-03, 6.28422899e-03,
       -1.14504704e-02, -3.48989815e-02, -3.35547850e-02, 3.94446822e-03,
       4.24021408e-02, 1.25254309e-02, -6.99013332e-03, -7.24776590e-04,
       -2.74562626e-03, 1.05378712e-02, 4.77932161e-03, -8.19176622e-03,
       3.80603969e-03, -2.83088506e-04, 1.06536681e-02, 2.58721095e-02,
       -5.89760486e-03, 1.15247974e-02, -4.58446257e-02, -4.80088405e-02,
       -4.54577766e-02, -2.12956909e-02, 1.37876638e-03, -1.41385347e-02,
       9.31043457e-03, -1.93124637e-02, -3.04606762e-02, -4.68000211e-03,
       -3.63859870e-02, -4.79322635e-02, -1.45793408e-02, 4.77344953e-02,
       1.81353055e-02, 1.09042609e-02, 7.06728967e-03, 1.47948344e-03,
       -1.94021105e-03, -2.58350149e-02, -2.00732891e-02,
       -9.99527331e-03, -1.79376937e-02, -2.82942988e-02,
       -2.31278744e-02, -7.13856798e-03, 2.06077807e-02, -1.82564631e-02,
       -3.63672636e-02, -5.68513721e-02, 1.02102524e-02, 3.27292867e-02,
       1.99975614e-02, 4.17087600e-03, 3.86036970e-02, -2.11589653e-02,
       -3.53784077e-02, 3.04524805e-02, -7.73393025e-04, 1.93753093e-02,
       1.89707372e-02, -8.67679622e-03, 1.27794389e-02, 3.57528888e-02,
       -2.63821315e-02, 1.72015522e-02, -1.03008039e-02, -8.04079790e-03,
       3.06350198e-02, 4.00723377e-03, -3.30103822e-02, -6.68054959e-03,
       5.88469114e-03, 2.41362490e-02, 4.12944565e-03, -1.43198865e-02,
       -5.39513044e-02, -7.38887116e-03, 1.47290947e-02, -3.52977887e-02,
       -4.64062318e-02, 6.05445914e-03, 1.44986995e-03, -4.51569678e-03,
       -1.41245062e-02, 3.04567325e-03, 5.13917804e-02, 1.31165152e-02,
       -3.07383258e-02, 1.53445872e-02, 2.51235589e-02, -4.61938616e-04,
       -1.51631692e-02, -1.78356674e-02, -3.52332406e-02,
       -2.48724483e-02, -1.94274839e-02, -2.06539389e-02,
       -1.44124413e-02, 7.39211170e-03, -6.42995303e-03, 1.12089177e-03,
       -3.77430674e-03, -1.96624137e-02, -2.53660535e-03, 3.83932069e-02,
       2.11813319e-02, -4.33138125e-02, 1.97305297e-03, -9.04350262e-03,
       -1.22866584e-02, -3.96127887e-02, -3.14411484e-02,
       -3.15739699e-02, -1.04414094e-02, 7.27370265e-04, -1.17424782e-02,
       2.43112538e-02, -1.44608216e-02, 1.71062052e-02, 1.81249771e-02,
       1.38643552e-02, 1.48402825e-02, 2.60447530e-04, 5.03751412e-02,
       2.69787423e-02, 1.72782559e-02, 1.41770970e-02, -1.40317883e-02,
       3.59676802e-03, 4.25338699e-03, 5.14035905e-03, -7.49477744e-03,
       6.48344820e-03, 3.05890348e-02, 1.61660351e-02, -3.07747200e-02,
       -3.11642736e-02, -6.77878037e-02, -3.56799886e-02,
       -3.10311979e-03, -2.76303086e-02, 1.02186641e-02, 4.89001302e-03,
       1.85863879e-02, -6.16282411e-03, -1.11243334e-02, -4.58043627e-02,
       -1.46794692e-02, 1.53612606e-02, -6.04061596e-03, 3.16131598e-04,
       -3.71019691e-02, -1.64589603e-02, -1.31989028e-02,
       -4.62201657e-03, -2.59207785e-02, 5.19456714e-03, 4.38960968e-03,
       -3.34748551e-02, 1.74287129e-02, 1.87689718e-02, 2.05761231e-02,
       1.54144336e-02, 8.09198420e-04, -1.38112428e-02, 2.45643705e-02,
       -1.24455718e-02, -5.76822599e-03, 7.13956309e-03, -1.34545257e-02,
       -8.46408308e-03, 2.42787097e-02, -1.13033596e-02, -1.68412458e-02,
       -2.64706071e-02, 1.68052521e-02, -1.46789532e-02, 3.80081264e-03,
       -5.67600317e-02, -1.16600432e-02, 1.91490725e-02, 1.76261552e-02,
       -1.62839927e-02, -6.53259754e-02, -3.41101140e-02,
       -5.06153144e-02, -1.17314989e-02, -2.89566815e-02,
       -2.10981723e-03, 9.18965414e-03, 1.27142966e-02, 1.67028718e-02,
       2.35114507e-02, 4.06592786e-02, 6.01341901e-03, 3.87494825e-02,
       -9.47324000e-03, 1.04273325e-02, 1.10938121e-02, -1.84207000e-02,
       -2.89749121e-03, -1.78450737e-02, 8.95941071e-03, -2.36376673e-02,
       1.71105489e-02, -1.65958218e-02, 1.05541917e-02, -4.94797248e-03,
       6.94434717e-03, -4.78615658e-03, -4.07213941e-02, -1.01622511e-02,
       3.81796760e-03, 4.60113958e-03, -1.77784357e-02, 6.45974604e-03,
       5.38140070e-03, -2.99092438e-02, -4.75933813e-02, -6.60844194e-03,
       1.41649442e-02, -4.37859893e-02, 1.60723329e-02, -4.27053124e-02,
       -1.03989411e-02, -1.34471618e-02, 1.14395348e-02, 2.57908031e-02,
       1.16280392e-02, 1.29370149e-02, 3.33533064e-02, 2.35701725e-02,
       -1.01139694e-02, 3.69407609e-02, 2.84316242e-02, 1.25741051e-03,
       2.01419257e-02, -2.79920845e-04, 4.02543619e-02, -9.25187673e-03,
       9.37422272e-03, -2.92427428e-02, 1.40349828e-02, 1.13262422e-02,
       -2.21503675e-02, -2.99805216e-02, -1.39726074e-02, 3.13139558e-02,
       -4.69620619e-03, 2.07167156e-02, -1.74599383e-02, 3.35275233e-02,
       9.06720106e-03, -3.44901755e-02, -2.58823112e-02, -3.27384584e-02,
       -2.97402255e-02, -2.38126330e-02, -2.35126801e-02,
       -5.18994331e-02, 1.26236398e-02, -5.32194553e-03, 1.15384925e-02,
       2.75892019e-02, -4.90938267e-03, 2.58897059e-02, 2.05226466e-02,
       2.43628509e-02, 9.74153262e-03, 3.04061994e-02, -9.53584164e-03,
       -4.49455641e-02, 5.76369523e-04, 1.39299524e-03, 9.55352560e-03,
       -8.13681539e-03, -9.69770190e-04, -1.66019797e-02,
       -1.08044259e-02, -4.02322821e-02, -2.02642065e-02,
       -2.92225871e-02, -1.51015790e-02, 5.36248204e-04, -4.88765771e-03,
       8.75725783e-03, -2.59881597e-02, 7.32172886e-03, -1.26101859e-02,
       -1.31495586e-02, -3.37971337e-02, -1.67332124e-02,
       -5.97294644e-02, 1.82390064e-02, -7.68293394e-03, 5.34789450e-03,
       2.64406353e-02, -5.91760315e-03, 1.26624890e-02, 1.93410274e-02,
       2.44130678e-02, 3.78957130e-02, 2.31229514e-02, 2.77231522e-02,
       1.64686628e-02, 1.24485958e-02, -1.59366317e-02, -1.09536434e-03,
       3.05202808e-02, 3.64032350e-02, -4.58202744e-03, 2.35401019e-02,
       -7.44808791e-03, 1.17157744e-02, 4.89422726e-03, -4.70379032e-02,
       -1.22050121e-02, 4.77318279e-03, 8.00563116e-03, -4.38308679e-02,
       7.11098965e-03, -2.68048197e-02, -1.91965960e-02, 1.60522945e-02,
       6.34856988e-03, -1.41632250e-02, -2.88089532e-02, 3.77633772e-03,
       4.76238504e-03, 2.15532873e-02, -2.50898730e-02, -6.34894297e-02,
       -3.05165648e-02, -1.64583344e-02, 6.61780639e-03, 1.19754439e-02,
       4.04436477e-02, -1.93462148e-02, -8.52469821e-03, -6.67658821e-03,
       -2.31343973e-02, -1.88394375e-02, -1.44330105e-02, 7.39822630e-03,
       -9.88669693e-03, 6.88546663e-03, 5.59043372e-03, 2.94158570e-02,
       -1.27240820e-02, -5.33486269e-02, -1.65319163e-02,
       -3.71000683e-03, 1.21877873e-02, -5.13901263e-02, -3.62591594e-02,
       1.86498091e-02, -2.92405132e-02, 2.23046020e-02, -3.32984664e-02,
       -2.29361691e-02, 3.31685692e-02, 4.68282811e-02, -4.17759195e-02,
       -6.99452916e-03, 3.35048176e-02, -6.27918765e-02, -2.53629368e-02,
       -2.14564111e-02, 1.26311078e-03, 6.95316792e-02, 2.62965821e-02,
       -3.46366614e-02, -1.47371376e-02, 9.09181871e-03, -3.33977601e-04,
       5.22223115e-02, -2.80539971e-02, -3.59063409e-02, 1.21467812e-02,
       3.03027891e-02, -4.28761877e-02, -1.44025879e-02, 3.63982655e-02,
       -3.84670049e-02, 2.71630380e-02, -1.61528122e-02, -2.70198900e-02,
       3.66840698e-02, 4.05538827e-02, -6.77360920e-03, 5.87325403e-03,
       1.81688946e-02, 1.94423441e-02, 1.62721574e-02, -3.61520760e-02,
       -3.75739224e-02, 2.12335605e-02, 5.43072410e-02, -8.62312410e-03,
       -1.06241874e-04, 6.26790756e-03, 8.31011124e-03, 3.03295571e-02,
       -1.14935720e-02, -1.56767033e-02, 2.89978907e-02, 1.19531648e-02,
       -2.36478038e-02, -1.78692713e-02, 7.54154753e-03, -3.00920033e-03,
       -4.89460537e-03, -2.84672137e-02, -1.81402620e-02, 5.30167259e-02,
       5.28924540e-03, -2.59435419e-02, -4.85792151e-03, -1.15444642e-02,
       -5.29872552e-02, 2.04856452e-02, 1.30644254e-03, -1.32863028e-02,
       2.08562613e-02, 3.58833410e-02, -2.34226957e-02, -2.52500512e-02,
       -5.97493127e-02, 3.99488285e-02, 2.73616351e-02, -3.67717557e-02,
       -2.24116631e-02, 2.25434676e-02, 3.39762680e-02, -2.76274141e-02,
       -4.02546525e-02, -2.39788517e-02, 1.21096978e-02, 1.34789303e-03,
       -3.25816609e-02, -1.69242546e-02, 3.99069041e-02, 7.76824681e-03,
       -3.21674123e-02, 1.62969921e-02, -2.54324414e-02, 6.67831069e-03,
       1.33224418e-02, -2.25533973e-02, -5.75895198e-02, -5.81788691e-03,
       2.42300257e-02, -2.71028634e-02, -1.42873160e-03, 3.62928100e-02,
       -2.41487194e-02, 1.26155671e-02, -3.87126207e-02, -3.26193087e-02,
       -1.12028830e-02, 3.47260013e-03, -2.76113637e-02, -1.59133263e-02,
       -3.55752348e-03, 5.56236804e-02, 7.81076029e-04, -1.05877994e-02,
       -1.45573132e-02, 2.00369186e-03, 1.43838022e-02, -1.23548107e-02,
       -3.93684860e-03, -2.33989786e-02, 3.92193794e-02, -1.73790883e-02,
       1.06247496e-02, 4.17045057e-02, 3.26416013e-03, 3.48375998e-02,
       -1.49837360e-02, 8.39730632e-03, 2.13196538e-02, 1.96939968e-02,
       3.20862271e-02, 1.11129717e-03, 3.32586952e-02, 5.31125255e-02,
       -3.12994719e-02, -2.44319029e-02, 7.80843757e-03, -1.61955934e-02,
       1.44157996e-02, 1.33487803e-03, 3.61222997e-02, 6.00463338e-02,
       -2.67838431e-03, 1.12128714e-02, -8.79824162e-03, 2.29111710e-03,
       -2.55743749e-02, -2.33275164e-03, -8.79901834e-03,
       -6.81961188e-04, 1.46163413e-02, -5.49222389e-03, 1.54577885e-02,
       3.22949514e-02, -1.73461419e-02, -2.25557555e-02, 4.00129594e-02,
       2.30942946e-02, -2.84322370e-02, -1.60885844e-02, -1.39568197e-02,
       -7.28206476e-03, 7.82866590e-03, 5.32370284e-02, 2.76751649e-02,
       2.92110117e-03, -5.27842902e-03, 2.53395326e-02, 2.91182995e-02,
       6.76561333e-03, -6.85458258e-03, 4.38976027e-02, 8.68822169e-03,
       -2.02839226e-02, 2.64283083e-03, 1.65691040e-02, -7.75868725e-03,
       -1.74865741e-02, -2.00117603e-02, 6.58607185e-02, 4.81206551e-02,
       -1.73994694e-02, -2.28124298e-02, -6.37579570e-03, 6.33033924e-03,
       -1.09533072e-02, -3.23662870e-02, -2.55293734e-02, 8.15637596e-03,
       -7.41498405e-03, -2.50451155e-02, -2.82639321e-02, 1.06869685e-02,
       -6.82676211e-03, -3.28899324e-02, -2.55158860e-02,
       -1.15464805e-02, 6.27004728e-02, 7.37743229e-02, -6.83638675e-04,
       -2.58800928e-02, -3.35146151e-02, 2.50194557e-02, 4.33293311e-03,
       2.21686717e-02, 3.55350319e-03, 2.26641502e-02, 9.60445963e-03,
       -1.93698239e-02, 7.88261741e-03, 4.23581190e-02, 6.99183252e-03,
       1.94614772e-02, -3.50406393e-03, -1.12769660e-02, 9.87324864e-03,
       3.64430137e-02, -1.06828613e-02, -4.93355468e-03, 2.76574288e-02,
       1.70941819e-02, -1.03878481e-02, 6.23583421e-03, 2.64552911e-03,
       -2.72619748e-03, 3.56209613e-02, -1.11429105e-02, 9.33299586e-03,
       2.58027799e-02, -1.14334617e-02, -1.73617750e-02, 2.45328080e-02,
       -3.04682553e-02, 1.63096394e-02, 3.65156755e-02, -3.69157852e-03,
       -6.32056454e-03, 3.51516753e-02, 8.75782128e-03, 1.61796641e-02,
       1.80949047e-02, -7.93891866e-03, -5.14098164e-03, 3.63043882e-02,
       -1.06369490e-02, -6.67002145e-03, 3.36752497e-02, -3.99488350e-03,
       1.38100153e-02, 8.97128787e-03, -4.48959135e-02, 7.32753566e-03,
       -1.14124678e-02, -9.57942009e-03, 2.64861919e-02, 2.72125080e-02,
       -2.39550807e-02, 4.40928852e-03, 3.39354984e-02, 4.10629017e-03,
       6.44582137e-03, -1.61437970e-02, 3.06757214e-03, -2.36101765e-02,
       8.59219348e-04, -4.51007448e-02, -9.72988550e-03, 1.06794704e-02,
       1.87453628e-02, 3.64940651e-02, 6.30999580e-02, 1.98032092e-02,
       6.61687879e-03, 4.07324731e-02, 1.30723938e-02, 3.05606332e-03,
       -6.18021376e-03, -2.31351890e-02, 2.45011654e-02, 5.84082305e-02,
       7.11966190e-04, -2.27412079e-02, 1.12363519e-02, -1.93373226e-02,
       1.42667051e-02, 1.87420975e-02, 1.26639968e-02, 1.52029106e-02,
       6.17767801e-04, 2.19797604e-02, -9.20438394e-03, -3.15166153e-02,
       -1.96606070e-02, -4.02716175e-03, 4.45650518e-03, 2.71436782e-03,
       -8.16389173e-03, 1.72324455e-03, -3.64905875e-03, 1.00911958e-02,
       -3.67079373e-03, -7.97063578e-03, 3.06494925e-02, 1.73464287e-02,
       -2.55806135e-05, 3.64356935e-02, 5.31187467e-02, -1.39450692e-02,
       5.36984717e-03, -1.91790424e-03, 8.60953995e-04, -1.76306407e-03,
       1.65202301e-02, -1.55895771e-02, 3.82609013e-03, 4.44036163e-02,
       -1.24686286e-02, 2.90853921e-02, 5.43081686e-02, 3.57362032e-02,
       3.47310468e-03, -1.24504548e-02, 1.70118064e-02, -1.07404059e-02,
       -1.74492560e-02, -3.49736474e-02, 5.74672781e-03, -8.53693578e-03,
       -7.11465068e-03, -1.44275837e-02, -1.24718715e-02,
       -7.91550963e-04, 1.87005159e-02, -8.24571308e-03, -2.25218199e-02,
       8.31687357e-03, 1.38997296e-02, -3.00473366e-02, -1.14462841e-02,
       -3.15986164e-02, -1.04362771e-04, -1.51440380e-02, 8.06116592e-03,
       -2.55248863e-02, 4.74205539e-02, 4.35644761e-02, 6.29748404e-02,
       3.55240926e-02, -4.25945316e-03, 1.68664306e-02, -2.79371860e-03,
       1.73047348e-03, -1.85053051e-02, 3.46490480e-02, 3.94215994e-02,
       5.39876474e-03, 1.22788930e-02, -1.21092433e-02, -6.96663919e-04,
       2.57495064e-02, -4.24103765e-03, -2.29311250e-02, 1.83027890e-02,
       2.15179566e-03, -3.64118442e-03, -1.50716873e-02, -2.72803959e-02,
       4.73546982e-03, -1.66142844e-02, 8.59898888e-03, -6.32558251e-03,
       -2.36930735e-02, -6.07518945e-03, 6.67426735e-03, -4.86517474e-02,
       -1.53070129e-02, -8.11271183e-03, 2.68419813e-02, 2.96196695e-02,
       -1.95159689e-02, 2.38176584e-02, 1.48019874e-02, 3.04012001e-02,
       1.14562595e-02, -2.71950755e-03, -1.07804621e-02, -1.40142133e-02,
       1.66070163e-02, -1.16564501e-02, -1.20668719e-02, -9.73319693e-04,
       2.75440849e-02, -2.50516292e-02, 3.97606660e-03, 1.28123222e-03,
       -3.17987725e-02, 1.95651948e-02, -1.96580105e-02, -3.80707867e-02,
       1.87502913e-02, 7.42781581e-03, -3.40942033e-02, 2.14630757e-02,
       -2.68142042e-03, -5.76495603e-02, -3.22269090e-02,
       -4.54194956e-02, 5.00283251e-03, -5.85133629e-03, 1.24200834e-02,
       -3.42257917e-02, -6.90885913e-03, -2.81624161e-02,
       -2.61325762e-02, 1.67067964e-02, 1.91380084e-02, 6.93172542e-03,
       4.57477905e-02, 2.90507395e-02, -1.35961658e-04, 2.64335070e-02,
       -2.08151340e-03, -9.86968540e-03, -1.81021262e-02,
       -2.24262681e-02, 1.97996721e-02, 4.01579142e-02, 4.44941446e-02,
       -2.95941113e-03, -1.31552862e-02, -1.80628896e-02, 1.27353973e-03,
       4.07928880e-03, -1.89010669e-02, -3.11387470e-03, 1.12340588e-03,
       4.76361625e-03, -9.58592258e-03, -7.64550688e-03, -2.39128824e-02,
       -2.57096123e-02, 1.99958542e-03, -7.83878285e-03, -2.28530336e-02,
       -6.93078712e-02, -3.84420119e-02, -1.11080371e-02,
       -1.62622575e-02, -5.17406799e-02, 6.24292716e-02, 2.48395838e-02,
       1.66414045e-02, 8.99781007e-03, 6.91007823e-02, 4.49302904e-02,
       -3.57684656e-03, -4.90358891e-03, -3.79400211e-03, 3.48020345e-02,
       4.39486131e-02, 2.74594426e-02, -1.35323056e-03, 2.20179893e-02,
       7.80091574e-03, -1.94014497e-02, -5.84198628e-03, -2.09081043e-02,
       -7.34113855e-03, -3.07344319e-03, 6.34644134e-03, 1.92135433e-03,
       -3.24475393e-02, -2.14685630e-02, -5.68470825e-03,
       -3.75154894e-03, -1.38937524e-02, -1.58839095e-02,
       -1.00285858e-02, -1.09654181e-02, -2.49507874e-02,
       -1.73495747e-02, -2.76937876e-02, -1.52592566e-02, 2.95018684e-03,
       -3.05098984e-02, 2.88799754e-03, 2.36383658e-02, 2.79758573e-02,
       3.40245590e-02, 6.03131354e-02, 6.76165968e-02, 4.88590915e-03,
       2.77854111e-02, 9.88348015e-03, 1.84822269e-02, 6.72760047e-03,
       -1.04269234e-03, -9.77038126e-03, 1.36651788e-02, 5.47803864e-02,
       4.19769250e-02, 4.46901135e-02, -7.58956606e-03, 2.66761817e-02,
       -4.61623166e-03, 9.22679529e-03, -3.30568478e-02, -4.61560525e-02,
       -1.08023938e-02, -5.33699989e-04, 6.52871467e-03, 8.11458752e-03,
       3.04290578e-02, 1.20974972e-03, 1.61642618e-02, -1.01798503e-02,
       7.74496468e-03, -3.58549543e-02, -2.23828368e-02, -5.10631688e-03,
       2.51216572e-02, 1.03459880e-02, -1.61794238e-02, -4.04356653e-03,
       5.09387255e-03, 5.83715085e-03, 2.19192989e-02, 3.44143175e-02,
       4.47366014e-02, -7.82544026e-04, -5.91274425e-02, -6.07194491e-02,
       -2.29438748e-02, -2.00984348e-02, 2.06137169e-03, -1.81305707e-02,
       -1.69671047e-02, -1.21370815e-02, -2.84657422e-02, 1.20688658e-02,
       4.09018248e-03, 2.27094013e-02, 2.76248883e-02, 1.28210457e-02,
       1.71692856e-02, -1.26481038e-02, -7.45712686e-03, 2.15147622e-02,
       -1.21896749e-03, -2.47146841e-02, -1.52388299e-02, 4.38976884e-02,
       -5.98804280e-03, -1.45946415e-02, -4.29541059e-02,
       -3.92795913e-02, 3.72969285e-02, -2.74212174e-02, -2.82676369e-02,
       -4.33186116e-03, 6.19045831e-03, -1.56395119e-02, 1.72467325e-02,
       3.58532765e-03, -9.19835409e-04, 1.36313653e-02, 1.35823351e-03,
       -6.01568110e-02, -1.78715345e-02, 2.34034713e-02, 2.10066326e-02,
       2.14737635e-02, -1.67091805e-02, -5.58591560e-02, -1.71935558e-02,
       8.38344800e-04, -1.71597973e-02, 3.99183761e-03, 1.54900653e-02,
       1.81060769e-02, -2.67679859e-02, -1.68699548e-02, -4.35743704e-02,
       1.73579324e-02, 3.32144573e-02, -7.58760748e-03, 2.03464441e-02,
       -1.55979432e-02, -2.93069333e-02, 5.27532678e-03, -1.74383335e-02,
       -1.81976371e-02, 4.03954014e-02, 1.70858633e-02, -3.17728855e-02,
       1.51339862e-02, 1.04754837e-02, 2.49203220e-02, -3.98630500e-02,
       -3.86722535e-02, -2.41735764e-02, -4.15905844e-03, 1.87780987e-02,
       -1.60722192e-02, -3.43815573e-02, 8.98805540e-03, -1.99338025e-03,
       6.01640679e-02, -2.90687196e-02, -2.51712706e-02, 3.04481126e-02,
       -3.78291458e-02, -4.06604894e-02, 3.50042805e-02, -2.56072879e-02,
       -2.46311091e-02, -6.01019859e-02, -6.17054999e-02,
       -6.06682487e-02, -2.99407765e-02, 4.01140526e-02, 4.84976396e-02,
       7.15518519e-02, 5.79134338e-02, 1.53418835e-02, -3.00453342e-02,
       -2.53926087e-02, -1.96381323e-02, -5.24243759e-03,
       -1.62071083e-02, 5.04115317e-03, 8.54020640e-02, 5.42426482e-02,
       3.78945731e-02, -1.38622625e-02, -4.58794162e-02, -6.77136257e-02,
       -3.77105772e-02, 7.17641488e-02, 1.07820384e-01, 1.28962338e-01,
       9.08586383e-02, 3.33970860e-02, -9.28898156e-03, 5.85009716e-03,
       3.40244849e-03, 3.37523455e-03, 3.23399566e-02, -4.04002937e-03,
       -1.88256726e-02, -3.84667479e-02, -2.68718936e-02,
       -3.48656960e-02, -2.49542948e-02, 4.24691476e-02, 5.98751791e-02,
       -4.80504036e-02, -5.58116548e-02, 2.16332711e-02, -1.95499533e-03,
       -1.84760336e-03, -6.31379262e-02, -1.02381771e-02, 5.41796871e-02,
       1.00569539e-02, 8.25710744e-02, 3.86131704e-02, 1.98939070e-02,
       -2.47807410e-02, 7.65543012e-03, -2.48365588e-02, -4.41497425e-03,
       5.75547554e-02, 1.05805352e-01, 5.89879835e-03, 4.41033440e-03,
       3.18283625e-02, 2.20516957e-02, 2.41228733e-02, -3.33331674e-02,
       2.91248821e-02, 8.61503333e-02, 8.83129537e-02, -2.15078983e-02,
       7.07515925e-02, 1.42815962e-01, 7.51921833e-02, 8.50917958e-03,
       -4.83876392e-02, -1.81861315e-02, 1.06703509e-02, -1.75026506e-02,
       -3.33935469e-02, 7.75359198e-02, 5.09309471e-02, -1.85774732e-02,
       -1.88618265e-02, -5.76933958e-02, -5.51395789e-02,
       -2.89204363e-02, -7.07218200e-02, -2.61792336e-02, 7.82361478e-02,
       1.50620148e-01, 1.16250612e-01, 4.70843576e-02, 1.37051744e-02,
       4.74278964e-02, 7.19922483e-02, 2.44156756e-02, -4.31176238e-02,
       -8.07029847e-03, 5.52654229e-02, 1.06227014e-03, -1.42763089e-03,
       -5.06303906e-02, -3.95376496e-02, -6.15384467e-02,
       -7.46757388e-02, 4.10656743e-02, 1.22753762e-01, 4.81253862e-02,
       -7.29651656e-03, -4.33226675e-02, 2.17306092e-02, 1.95253324e-02,
       2.58762427e-02, -1.85755286e-02, -8.63375235e-03, 5.51182106e-02,
       5.16940746e-03, -1.93297602e-02, 2.77529005e-02, 9.60221607e-03,
       2.23293155e-02, 1.90774666e-03, -8.86928383e-03, 1.73272064e-03,
       4.04231548e-02, 1.30220661e-02, -4.26337942e-02, -6.02344759e-02,
       1.98590787e-04, -1.23910019e-02, -1.27888750e-02, -3.95935848e-02,
       -3.22782658e-02, -8.02840944e-03, -4.24915850e-02,
       -8.87629911e-02, -2.85315551e-02, -3.57938819e-02,
       -5.07323295e-02, -3.57634425e-02, 1.78708963e-03, 2.98979525e-02,
       3.63376439e-02, -2.69624870e-02, -2.55112480e-02, -4.74014599e-03,
       -2.03198530e-02, -9.28672310e-03, 2.17852872e-02, 2.71501020e-02,
       5.17846867e-02, 7.79756382e-02, -1.81212090e-02, -3.27579118e-02,
       -3.96377519e-02, -1.89242382e-02, 1.54967075e-02, 2.77858656e-02,
       -3.28724575e-03, -4.31827782e-03, 1.85309537e-02, -3.23051848e-02,
       -2.66934838e-02, -3.62832174e-02, -2.67166104e-02,
       -2.90528163e-02, -1.38257593e-02, 5.26254345e-03, 4.90815267e-02,
       1.29951211e-02, -3.53002106e-03, -2.60972213e-02, -4.51306999e-02,
       -4.07029837e-02, 2.28942093e-03, -4.80424846e-03, -7.15147238e-03,
       4.21302803e-02, 1.00700207e-01, 1.21589261e-03, -3.27057242e-02,
       -3.03226039e-02, 2.02839822e-03, 1.94460563e-02, 2.31744647e-02,
       1.33064929e-02, 2.08523441e-02, 7.18199685e-02, -2.95475777e-02,
       -3.58006172e-02, -3.46724060e-03, 7.55472109e-04, 4.07141857e-02,
       2.10727099e-02, 6.35337643e-03, 1.92645360e-02, 1.05901603e-02,
       2.59223557e-03, -2.86295842e-02, -3.86410840e-02, 1.61613598e-02,
       3.39468755e-02, 5.09988237e-03, -3.03353164e-02, -5.12156496e-03,
       1.31222652e-02, -2.58158566e-03, -5.01869693e-02, 2.66343784e-02,
       6.27443343e-02, 2.17656372e-03, -6.34766510e-03, -7.58654298e-03,
       8.15064237e-02, 6.00459464e-02, -2.82874051e-03, -1.83292676e-03,
       -2.79855300e-02, 3.21371779e-02, 9.01088584e-04, 2.28586867e-02,
       4.53262366e-02, 5.52380607e-02, 6.51427358e-02, -2.89525429e-04,
       3.12765827e-03, 1.39910914e-02, 2.97821537e-02, 1.12086348e-02,
       4.61827815e-02, 5.29458411e-02, 3.87452655e-02, 1.59846265e-02,
       4.13073925e-03, 5.64972777e-03, -6.67139329e-03, 4.48128954e-02,
       5.50030638e-03, -8.31506695e-05, -2.12708302e-02, -3.04902028e-02,
       -4.07000110e-02, -3.63899879e-02, -3.59790064e-02,
       -2.48034168e-02, -3.40770073e-02, -2.09046993e-02, 3.09809507e-03,
       -2.33094990e-02, 1.60061307e-02, 3.71957049e-02, -2.90535558e-02,
       -1.46174124e-02, -1.60457231e-02, 4.08293419e-02, 1.36542600e-02,
       4.98139597e-02, 6.41329810e-02, 3.24831381e-02, 4.09483127e-02,
       -2.28189901e-02, -7.69166928e-03, 1.64797902e-02, 6.48954301e-04,
       -2.11177440e-03, 1.13904784e-02, 3.26152220e-02, -4.14136611e-02,
       -1.57976206e-02, -6.27400652e-02, -3.53734083e-02,
       -4.40599397e-02, 2.25644070e-03, -8.50885699e-04, 3.08917947e-02,
       -2.78749457e-03, 2.56762672e-02, 8.52097385e-03, -3.40777896e-02,
       -1.59892198e-02, 2.00467240e-02, -1.92578342e-02, -2.75824219e-02,
       1.58096924e-02, 2.48818696e-02, 2.27781869e-02, 3.76789905e-02,
       -3.28651741e-02, -2.40561031e-02, -8.86151846e-03,
       -1.00217341e-02, -1.26128625e-02, -6.35921955e-03, 1.97623111e-02,
       1.65467802e-02, 2.82587409e-02, -3.03175375e-02, -5.09979278e-02,
       -5.04584387e-02, -1.03481617e-02, -2.13776696e-02, 9.46058612e-03,
       9.79488995e-03, 3.37469280e-02, 3.06422468e-02, -1.26166018e-02,
       -3.35656367e-02, 1.01475581e-03, -4.60403860e-02, -3.28714177e-02,
       1.59575958e-02, 1.49729298e-02, 9.82648134e-03, 1.94978435e-02,
       -1.14476681e-03, -8.15756842e-02, -1.91317666e-02,
       -2.86370479e-02, -1.91276371e-02, -1.10360375e-02, 3.61621357e-03,
       -3.08544002e-02, 9.74598248e-03, -2.69008838e-02, -5.05212694e-02,
       8.43771826e-03, -2.34954106e-03, -9.30806436e-03, 9.60176252e-03,
       -6.35203347e-03, 2.78931428e-02, 6.05627242e-03, -2.01558452e-02,
       -3.44443321e-03, 4.29564435e-03, -1.74875427e-02, -2.58078054e-03,
       -1.33031653e-03, 1.11782213e-03, -6.14296598e-03, 5.92487045e-02,
       -9.11515951e-03, -6.05233721e-02, 8.73013306e-03, -1.54644977e-02,
       1.04528330e-02, -6.72528753e-04, -1.62498821e-02, 3.37111540e-02,
       2.94371434e-02, -4.77671474e-02, -3.22469361e-02, -1.46992169e-02,
       -2.04861574e-02, -9.04553756e-03, 3.86707881e-03, 3.33216935e-02,
       1.77741256e-02, 9.74423252e-03, 4.50045383e-03, -1.51088610e-02,
       6.57559419e-03, -2.28254125e-02, -4.53191921e-02, -2.01376602e-02,
       -7.93648418e-03, 9.84009262e-03, -5.94657054e-03, -9.12956987e-03,
       -3.62018645e-02, -3.97946015e-02, -4.97580916e-02,
       -4.47533354e-02, -2.13120617e-02, 4.42873081e-03, 5.88403083e-02,
       5.10368310e-03, -3.40826958e-02, -4.71906625e-02, -2.21861638e-02,
       -2.60109007e-02, -2.82818545e-02, 1.90522410e-02, 6.19760863e-02,
       4.58972976e-02, 7.11932406e-03, -1.54543938e-02, -3.25736776e-02,
       -7.66340271e-03, -4.26489562e-02, -1.42787313e-02, 2.63496097e-02,
       6.92596361e-02, 7.17915362e-03, 2.64142286e-02, 2.02971082e-02,
       -1.59428865e-02, -3.63650024e-02, -4.32825880e-04, 6.60616113e-03,
       6.90196699e-04, 2.13951990e-02, -2.85504870e-02, -1.38618778e-02,
       5.46796899e-03, -4.44999412e-02, -3.30480114e-02, -9.61120054e-03,
       2.28417739e-02, -4.78939572e-03, -2.31397282e-02, 8.07436556e-02,
       7.27167949e-02, 7.64426738e-02, 4.05194275e-02, 4.39588763e-02,
       5.63010620e-03, 3.19669545e-02, 3.32049057e-02, 4.06183489e-02,
       4.25726809e-02, 4.66532968e-02, 6.24447986e-02, 2.88115852e-02,
       4.80500124e-02, 5.85060157e-02, 5.69154732e-02, 3.55825685e-02,
       2.35682838e-02, -1.13237835e-02, -8.05991981e-03, 7.80899916e-03,
       3.38405892e-02, 4.03488688e-02, 2.18720734e-02, 2.63780225e-02,
       2.61260085e-02, -2.71485257e-03, -6.80520162e-02, -5.80330752e-02,
       -4.70406674e-02, -6.23179786e-02, -1.30679104e-02,
       -3.86082418e-02, -3.05378549e-02, -2.80755125e-02,
       -2.54596062e-02, 3.97703275e-02, 4.33104485e-02, 6.42976910e-02,
       6.33476302e-02, 1.21759333e-01, 1.31346151e-01, 8.77520144e-02,
       6.96657822e-02, 5.62970005e-02, -2.56651156e-02, -5.35301417e-02,
       -2.79083364e-02, -3.76245752e-02, 4.68111821e-02, 6.20670849e-03,
       -4.10643918e-03, -4.99126269e-03, 3.30513483e-03, -2.79911943e-02,
       1.96950957e-02, 1.24967601e-02, 2.14958340e-02, 7.07283244e-03,
       2.24763900e-02, 1.94656290e-02, 4.79600765e-03, 2.58189794e-02,
       -3.57921720e-02, -3.53546962e-02, -5.51045267e-03, 3.87416221e-02,
       8.52175523e-03, 3.90066691e-02, 2.59138700e-02, -1.92392841e-02,
       -1.33313378e-02, -1.99595727e-02, -2.09071096e-02,
       -1.04308864e-02, 2.36983597e-02, -2.65716650e-02, 3.55926454e-02,
       2.95356009e-02, 1.26183098e-02, 2.58200932e-02, -2.90027261e-02,
       -6.45437464e-02, -2.33433619e-02, 1.87560655e-02, -1.30680222e-02,
       2.23622955e-02, 5.14389481e-03, -7.35967327e-03, 1.28080165e-02,
       4.29103374e-02, -6.58812746e-02, -3.87463793e-02, -2.75191981e-02,
       1.41162612e-02, -5.03740311e-02, -5.39301932e-02, -4.71832268e-02,
       1.79905742e-02, 5.57364561e-02, -3.75436284e-02, -3.66845429e-02,
       1.73298884e-02, 7.61642903e-02, 3.55877541e-02, -3.50931212e-02,
       -3.15555669e-02, 3.46974060e-02, 4.52385359e-02, -2.63145510e-02,
       -1.74724832e-02, -6.16500480e-03, 1.62953455e-02, -1.99516602e-02,
       -3.05689331e-02, -5.54113165e-02, 5.92369549e-02, 3.56158018e-02,
       -3.56816091e-02, -1.23116793e-02, 5.09394631e-02, 3.69775333e-02,
       4.48731072e-02, -2.68849675e-02, -9.00849816e-04, 4.79357578e-02,
       -4.00121808e-02, -2.62649469e-02, 3.21503319e-02, 1.92259215e-02,
       2.95816008e-02, 1.54451700e-02, 4.36817994e-03, -2.33407319e-02,
       -4.32648435e-02, -1.30783711e-02, 5.31075448e-02, 9.35104266e-02,
       5.71899042e-02, 4.80539650e-02, 4.88673002e-02, 5.58919869e-02,
       3.53880674e-02, -3.39711495e-02, -5.40931709e-02, -5.49832284e-02,
       1.53358234e-02, 2.83804722e-02, 2.69925203e-02, 6.95174485e-02,
       6.42387718e-02, 1.18773859e-02, -3.90462950e-02, -3.43830958e-02,
       3.37508181e-03, 4.53497022e-02, 5.76643050e-02, 3.71004492e-02,
       9.09269080e-02, 1.20830625e-01, 1.40345976e-01, 2.02194016e-04,
       6.53533041e-02, 2.63219699e-02, 1.59014687e-02, -2.60035209e-02,
       7.74838962e-03, -5.77124255e-03, -7.75615918e-04, 4.02110964e-02,
       5.83653711e-02, 2.80118128e-03, 5.87320467e-03, 4.46618274e-02,
       4.44248784e-03, 1.08142300e-02, -3.11087519e-02, 2.77177952e-02,
       2.55679395e-02, 1.93393789e-02, 5.91563657e-02, 6.64684698e-02,
       1.80646293e-02, -2.00595357e-03, -4.67302365e-04, 1.49703072e-02,
       2.15470940e-02, 6.33700639e-02, 6.38577342e-02, 1.34594105e-02,
       3.93791758e-02, 4.28162403e-02, -3.30664665e-02, 1.67909618e-02,
       -1.41611621e-02, 1.76131558e-02, -1.95488334e-02, -5.31363208e-03,
       -5.27366176e-02, 2.83975638e-02, 1.07382044e-01, 9.61832404e-02,
       3.01639307e-02, 7.27976784e-02, 6.89620152e-02, 3.00141666e-02,
       -2.69368496e-02, -8.83557573e-02, -5.59536926e-02, 7.68621359e-03,
       -6.58524968e-03, 2.47394405e-02, 4.39006742e-03, 7.29238801e-03,
       -4.33690064e-02, -7.98082501e-02, -1.26986075e-02, 2.62245517e-02,
       1.00911699e-01, 5.97200356e-02, 2.53864825e-02, 1.01366393e-01,
       1.00341417e-01, 1.03479819e-02, -3.57459821e-02, -7.35229030e-02,
       -5.04731573e-02, 2.17837114e-02, -2.29291786e-02, 4.18924876e-02,
       -8.12182575e-03, -1.99263599e-02, -7.58089274e-02,
       -8.91706124e-02, -4.11168598e-02, -1.78868324e-02,
       -2.09072568e-02, -1.10437432e-02, -4.38212827e-02, 2.29458548e-02,
       1.34555642e-02, 1.70274880e-02, -3.93417664e-02, -4.05107103e-02,
       -2.32809577e-02, -6.31639957e-02, -7.01325759e-02,
       -3.46030481e-02, -4.20427099e-02, -6.47830889e-02,
       -3.72217596e-02, -1.21195493e-02, -3.53770293e-02,
       -5.16339578e-03, 2.01857314e-02, 9.98461503e-04, -5.78835644e-02,
       6.66382723e-03, 1.36335380e-02, 1.11675169e-02, -2.81518921e-02,
       1.03918305e-02, -2.15957686e-02, -4.20183577e-02, -4.69426066e-02,
       -6.89221844e-02, -5.41115813e-02, -4.49024476e-02,
       -7.00095762e-03, -3.11673004e-02, -3.97154093e-02,
       -4.17376927e-04, -8.09908006e-03, -1.90830883e-02, 1.89120858e-03,
       1.16048390e-02, -2.57560145e-02, -1.75798088e-02, -1.83523148e-02,
       -3.97628546e-02, -1.50431497e-02, 2.61984393e-02, 1.55078515e-03,
       -1.74176693e-02, 2.13484485e-02, 1.65672041e-02, 5.79984440e-03,
       -6.54163808e-02, -5.28849568e-03, 1.91423427e-02, -9.03603435e-03,
       -1.05454409e-02, -1.28450394e-02, -5.19546447e-04,
       -3.01307850e-02, -1.30935302e-02, -2.78501529e-02,
       -5.21598980e-02, -4.00688127e-03, 2.09055748e-03, -2.13455353e-02,
       -6.01262636e-02, -2.75195520e-02, -4.03382592e-02,
       -3.98504622e-02, -5.63356951e-02, -3.15065421e-02,
       -1.81051698e-02, 2.70821322e-02, 1.90451201e-02, 1.58597250e-05,
       3.72551680e-02, 3.13886777e-02, -9.07993689e-03, -5.67286648e-02,
       -4.90387566e-02, -2.00131387e-02, 3.24914195e-02, -1.24302378e-03,
       3.55105549e-02, 6.48372993e-02, 1.20070507e-03, -1.51970247e-02,
       -6.48407266e-02, -5.53130582e-02, -4.06805798e-02, 3.12796161e-02,
       2.33716872e-02, -1.83709357e-02, 5.71300462e-03, -1.83561463e-02,
       -5.43461740e-03, -3.02581582e-02, -6.76425099e-02,
       -8.96737562e-04, 5.48379794e-02, 5.19206785e-02, 1.51171116e-03,
       -6.21180166e-04, -4.67843749e-03, -4.10683788e-02,
       -4.07107472e-02, -4.22189124e-02, -1.07384101e-02, 4.36460599e-02,
       3.51147465e-02, 5.24938405e-02, 8.54510143e-02, 4.22388315e-02,
       9.97952092e-03, -3.43852378e-02, -7.45728463e-02, -4.16733548e-02,
       -9.75419022e-03, 2.50134803e-02, 9.52823926e-03, 3.96083482e-03,
       -3.45501816e-03, -1.38865772e-03, -4.41109650e-02,
       -2.62923352e-02, 2.97912192e-02, 4.10921834e-02, 5.27225956e-02,
       3.13958451e-02, 4.96844202e-02, 7.66517892e-02, -9.24406759e-03,
       -1.96247920e-02, -4.77541611e-02, 2.17916500e-02, 1.83747485e-02,
       2.02410128e-02, 3.50517631e-02, -1.05657205e-02, 2.78836495e-04,
       -5.83313033e-02, -3.14789228e-02, -6.20435737e-02,
       -1.47009250e-02, -9.09599382e-03, 1.54605992e-02, -2.02826154e-03,
       -2.51538283e-03, -1.77361351e-02, 3.36350240e-02, -6.93088770e-03,
       2.12945789e-02, 6.05781563e-02, -7.65765691e-03, 5.36908489e-03,
       2.77187638e-02, -2.73214784e-02, -2.80746855e-02, 4.02023792e-02,
       1.65676717e-02, 7.60992989e-03, 2.06171218e-02, -1.83454305e-02,
       3.65995825e-03, 5.76121034e-03, -3.54159437e-02, -1.32614672e-02,
       6.09023962e-04, -5.44142015e-02, 2.42221560e-02, 2.79650427e-02,
       -3.56380232e-02, -4.72143181e-02, 8.66550300e-03, -2.73688602e-05,
       -9.04773735e-03, 4.57349755e-02, 4.00212854e-02, -2.96639591e-05,
       7.70678371e-02, 1.59833883e-03, -1.11307548e-02, 3.04737687e-02,
       -1.07488912e-02, -1.97007842e-02, 3.02224644e-02, -1.44759612e-02,
       -3.47974375e-02, 6.29880875e-02, 4.12442647e-02, -4.86909114e-02,
       -6.16833568e-03, -2.85774171e-02, 2.90552445e-04, 3.48351747e-02,
       -2.98847165e-02, -2.94491965e-02, 2.85653230e-02, -2.19128132e-02,
       -4.40942310e-02, 3.55413882e-03, -2.63375533e-03, 6.27902430e-03,
       4.99140844e-02, 1.06711183e-02, -1.17267920e-02, 4.04677093e-02,
       -8.35401379e-03, -3.16587165e-02, -3.29643004e-02,
       -5.50641529e-02, 4.34722453e-02, 7.79096708e-02, 5.89753874e-03,
       -3.44268675e-03, 9.06441063e-02, 2.40018722e-02, -1.98669024e-02,
       2.85481452e-03, -9.38382745e-03, 1.21054864e-02, 3.39345522e-02,
       -4.74504381e-02, 2.08314247e-02, 3.82779390e-02, -4.24510129e-02,
       -2.79955249e-02, -2.62198504e-02, -8.41945689e-03,
       -1.21352402e-02, 2.11280119e-02, -2.46266332e-02, -9.28639341e-03,
       3.71196717e-02, -8.31952842e-04, -8.63916520e-03, -1.03888428e-02,
       -4.87722494e-02, 1.26130367e-02, 7.84154087e-02, -2.79792323e-04,
       -1.41552677e-02, 1.79512911e-02, -3.30282412e-02, -1.29949003e-02,
       2.18468788e-03, -2.98134238e-02, -2.90063638e-02, 5.78632113e-03,
       -1.99220218e-02, 1.40137682e-02, -2.38718465e-02, -4.68978360e-02,
       -3.21253091e-02, 7.17025343e-03, -9.75552388e-03, -3.93278822e-02,
       -2.47410983e-02, -1.05361044e-02, 3.55515629e-02, -4.06980561e-03,
       -8.09548702e-03, -1.41736055e-02, -2.04409603e-02,
       -1.52136572e-02, -3.58008756e-03, 5.33797219e-03, 3.11810840e-02,
       2.12702528e-02, -2.06147023e-02, -5.69831505e-02, -4.08245139e-02,
       1.06954267e-02, -1.14356307e-02, -3.14746015e-02, -1.56795252e-02,
       -1.44679239e-02, 6.32885769e-02, 3.80131006e-02, -4.59700637e-03,
       -2.29786355e-02, -2.83176396e-02, -1.26079121e-03,
       -3.51366494e-03, 1.69364195e-02, 2.16994784e-03, 3.34308296e-02,
       1.36930076e-02, 3.70889232e-02, 2.79305987e-02, 2.47087907e-02,
       3.27170198e-03, -1.35524096e-02, -2.26497673e-03, 4.02451167e-03,
       4.40431982e-02, 3.29969414e-02, 3.41558643e-02, 1.21897375e-02,
       3.92485894e-02, 3.24430056e-02, 3.27579528e-02, 2.50405446e-02,
       1.27225090e-02, 7.54253045e-02, 3.47215906e-02, 2.47211382e-03,
       1.26695475e-02, 1.02819279e-02, 2.54145451e-02, 2.81304959e-02,
       1.83410589e-02, -7.93376751e-03, 6.27089515e-02, 3.05659287e-02,
       2.73546446e-02, 2.27539837e-02, 6.41961321e-02, 2.23008674e-02,
       3.16397324e-02, 1.37097081e-02, 3.26631516e-02, 2.94612795e-02,
       3.59623395e-02, 4.21185531e-02, 6.63703382e-02, 8.45483989e-02,
       1.06230997e-01, 4.77497131e-02, 5.44506274e-02, 4.47756723e-02,
       -4.28258553e-02, -6.75270557e-02, -4.18009236e-02,
       -5.05969487e-02, 8.14942468e-04, -4.24786322e-02, -4.47104983e-02,
       -3.30220759e-02, -2.03815829e-02, 6.27426207e-02, 2.75976490e-02,
       4.84602451e-02, 1.17685206e-01, 9.82019454e-02, 5.86827919e-02,
       -4.41076746e-03, 2.79086418e-02, 4.00822014e-02, -1.90426409e-02,
       -4.32798825e-02, -8.95921793e-03, -4.65653324e-03, 5.25492132e-02,
       -5.31278290e-02, -6.74177557e-02, -5.08509912e-02,
       -2.66499557e-02, 1.26471138e-03, -4.43997122e-02, -6.45691948e-03,
       1.78058632e-02, -1.03605939e-02, 2.92870551e-02, 1.84312612e-02,
       -3.40797735e-04, 2.79269014e-02, -3.92109063e-03, -3.41623127e-02,
       -3.15812007e-02, 2.17692973e-03, -2.26740073e-02, -2.22625808e-04,
       -1.61510352e-02, -8.25215783e-03, 1.82815511e-02, 3.69404331e-02,
       7.44660432e-03, 2.71750633e-02, 3.69714312e-02, 2.51482762e-02,
       7.22796768e-02, 5.31440647e-03, 1.20205069e-02, 4.02166024e-02,
       3.08298320e-02, 1.05768275e-02, 1.97324231e-02, 3.54469828e-02,
       -1.31000270e-04, 9.14355833e-03, -1.98670123e-02, -1.77532937e-02,
       1.03414292e-02, 5.13573550e-02, -1.75955165e-02, -1.95271876e-02,
       -1.97983161e-03, 4.20828955e-03, 1.36678033e-02, 1.11804269e-02,
       -2.76398174e-02, -7.95250945e-03, 1.86556093e-02, -1.44643011e-02,
       -3.53022628e-02, 3.03808041e-02, -2.15837136e-02, 1.35061909e-02,
       -2.37137023e-02, -8.36881716e-03, 4.84191719e-03, 2.09549367e-02,
       -3.51581015e-02, -1.67870056e-02, 5.79274399e-03, -1.44083649e-02,
       3.24304700e-02, -1.09832510e-02, -3.08667999e-02, -2.17702202e-02,
       3.69645283e-02, 2.57740598e-02, -2.78130709e-03, 1.58589315e-02,
       -1.81331567e-03, 1.43733947e-02, 2.47097313e-02, -2.71859989e-02,
       2.51547936e-02, -4.48288992e-02, -6.72386214e-02, -4.42047827e-02,
       -8.75593163e-03, 4.99429218e-02, 8.72560441e-02, 7.44831115e-02,
       1.08511290e-02, -2.71891858e-02, 7.26261828e-03, 7.28914887e-03,
       1.23705091e-02, -4.29144874e-03, 2.19697487e-02, 8.63356665e-02,
       1.10205702e-01, 1.05038926e-01, 4.88492735e-02, -3.89838517e-02,
       -5.54940179e-02, -5.38306795e-02, -5.06839342e-02, 6.74732355e-03,
       -1.05037577e-02, 3.21658589e-02, -4.40626331e-02, -3.85588482e-02,
       5.20837074e-03, 2.62209680e-03, -4.22593160e-03, -1.86895914e-02,
       2.55522877e-02, 4.35399525e-02, 5.36650531e-02, 2.02854499e-02,
       -6.95419265e-03, 1.00994110e-01, 7.37986863e-02, -5.87882148e-03,
       -3.06127537e-02, -1.11226412e-02, -9.99534875e-03, 7.50145456e-03,
       2.66924594e-02, 5.52265830e-02, 6.12525009e-02, 7.03301132e-02,
       1.89721342e-02, -4.92370166e-02, 1.06207822e-02, 2.91959327e-02,
       3.52146477e-02, -2.76238974e-02, -1.92345139e-02, 5.93971610e-02,
       3.22171673e-02, -1.30028669e-02, -3.02059036e-02, 2.39912271e-02,
       -3.37761380e-02, -3.41153108e-02, -2.44156271e-02, 2.52852403e-02,
       5.37782200e-02, 4.93859649e-02, 1.49014955e-02, -7.88529962e-03,
       5.51755950e-02, 1.15861343e-02, 6.85588270e-03, -4.60912101e-02,
       -1.74593031e-02, 4.45046416e-03, 4.24657837e-02, 1.05370507e-02,
       -3.79840732e-02, -1.16184307e-02, 1.17087051e-01, 1.44807160e-01,
       6.16740808e-02, -3.74477468e-02, -6.36655763e-02, -3.40361111e-02,
       -3.96197028e-02, -8.13057870e-02, -1.28651820e-02,
       -7.25268666e-03, 3.65393162e-02, 1.93417519e-02, -1.37685891e-02,
       -1.96985598e-03, 4.38941047e-02, -1.81628612e-03, -3.75533476e-02,
       -7.52570014e-03, 1.01027526e-01, 1.43450707e-01, 9.48830545e-02,
       7.26882892e-04, -5.15290871e-02, -2.72508152e-02, -4.30296548e-02,
       -7.54070953e-02, -3.69882630e-03, 9.68684908e-03, 3.23977619e-02,
       5.30527681e-02, -1.85979009e-02, -2.08580773e-02, 6.55802479e-03,
       1.93109475e-02, -2.35601366e-02, -7.07762912e-02, -4.61766012e-02,
       1.38253078e-03, 4.31045517e-02, 2.96882819e-02, -2.57164211e-04,
       -1.08780395e-02, 1.56146055e-03, -4.54806872e-02, -4.11684550e-02,
       -5.57545647e-02, -3.36961746e-02, 8.24788399e-03, -3.33112553e-02,
       5.84757130e-04, 2.89700311e-02, 3.86339761e-02, 4.10165079e-03,
       -3.59896570e-03, 1.35077937e-02, 4.86957431e-02, 8.65137279e-02,
       3.86821367e-02, -1.65259298e-02, -1.63013134e-02, 2.11538579e-02,
       -2.49206908e-02, -1.32793132e-02, -1.64381545e-02, 5.22486353e-03,
       1.95907205e-02, -2.68388074e-02, -4.89544449e-03, 1.62696876e-02,
       -1.75910592e-02, -3.56220640e-02, -4.12851311e-02,
       -3.14241350e-02, -4.92606908e-02, 6.55529322e-03, -1.25823459e-02,
       -1.14655551e-02, 9.37291048e-03, -3.10253091e-02, -3.31950821e-02,
       -3.80981155e-02, -2.05509383e-02, -5.16609959e-02, 2.96116224e-03,
       1.56408325e-02, 2.34376621e-02, 3.24502923e-02, -2.14273073e-02,
       -3.73006910e-02, -1.60357077e-02, -1.07377097e-02,
       -2.78407149e-03, 1.71631407e-02, -7.34006101e-03, 2.38430202e-02,
       7.34129623e-02, -1.32069383e-02, -1.30249625e-02, -3.07140555e-02,
       3.45748989e-03, 7.50816334e-03, 4.85937335e-02, 1.91058889e-02,
       -3.39764021e-02, -1.01493346e-02, 3.93958576e-03, 1.30653577e-02,
       -1.95284523e-02, 1.70675553e-02, -1.50433462e-02, 2.37951241e-02,
       2.23018788e-02, -4.53917682e-02, -3.50082330e-02, 8.06009746e-04,
       2.80516259e-02, -3.84263359e-02, -3.28543708e-02, -5.71531476e-03,
       2.31658779e-02, 3.02564981e-03, 1.11028608e-02, 1.98975056e-02,
       -1.63468532e-02, 1.46452300e-02, -2.00929437e-02, 3.80992629e-02,
       2.73832884e-02, 1.06039427e-01, 4.03417908e-02, -2.65930947e-02,
       -8.97452515e-03, 3.30015994e-03, -8.75743479e-03, 4.63513378e-03,
       -1.67812351e-02, -8.02563131e-03, 9.82775986e-02, 4.32051122e-02,
       -2.29000822e-02, -1.42213553e-02, -1.08670443e-02,
       -1.73745188e-03, -3.46235298e-02, -7.93703645e-03, 2.56123617e-02,
       2.03995500e-02, 2.57817786e-02, -2.84579210e-02, -1.57472957e-02,
       -3.08985729e-02, -1.83161628e-02, -1.51600782e-02,
       -4.82155345e-02, -3.61910928e-03, -5.96599579e-02,
       -3.07876244e-02, 4.41436172e-02, 1.37792965e-02, 3.35918297e-03,
       -7.24518672e-03, -2.21855808e-02, -2.73591969e-02, 1.83846708e-03,
       9.12079066e-02, 8.68111402e-02, 6.66690916e-02, 2.32226085e-02,
       -4.50753048e-03, 1.91759765e-02, -6.11280557e-03, -4.16931473e-02,
       -2.01160628e-02, 2.91762296e-02, 5.87598309e-02, 2.10264791e-02,
       1.81007367e-02, -4.54034936e-03, 1.50729679e-02, 6.98025757e-03,
       -5.13555333e-02, -3.31280902e-02, -2.24505551e-02,
       -3.70524302e-02, 2.45248564e-02, -5.47724776e-04, -5.55447377e-02,
       -2.33691558e-02, 2.82445370e-04, -4.36940725e-04, -3.92038114e-02,
       -1.15724038e-02, 1.48890810e-02, 5.97034432e-02, 3.73202488e-02,
       -1.01307454e-02, 2.90124994e-02, 3.00891735e-02, -4.08703946e-02,
       -3.90510894e-02, 1.61497686e-02, 3.48079726e-02, 2.34014317e-02,
       1.69673357e-02, -3.42822075e-02, 3.26640531e-03, 5.28183617e-02,
       -2.84726135e-02, -2.92830542e-02, 2.57364800e-03, 2.83822883e-02,
       -1.04074730e-02, 2.15816423e-02, -3.37495916e-02, -3.06432638e-02,
       -2.55802423e-02, -2.05220329e-03, -1.09854201e-02, 7.47517357e-03,
       2.04254910e-02, 1.18468022e-02, -1.05634630e-02, -3.87524329e-02,
       -1.51699968e-02, -4.16889638e-02, -4.87561226e-02,
       -5.31818997e-03, 3.93957086e-02, 1.58871952e-02, 3.16060632e-02,
       7.06521841e-03, -2.19259579e-02, -2.66595685e-04, 6.31870283e-03,
       -3.01791076e-02, -3.48506123e-02, -4.47373342e-04, 3.85678075e-02,
       4.24675345e-02, -2.53038108e-03, -2.78424285e-02, 2.90735275e-03,
       -1.39077445e-02, -3.85454707e-02, -4.99388017e-02, 3.17401043e-03,
       8.06254148e-03, -1.27512543e-02, -5.71273081e-03, -1.79378632e-02,
       7.53252488e-03, -2.12922078e-02, -4.16944958e-02, -1.13131106e-02,
       7.96561614e-02, -3.66174825e-03, -1.24545986e-04, 2.53093503e-02,
       -2.73508448e-02, -1.78322960e-02, -2.89840102e-02,
       -1.56484004e-02, -2.19961684e-02, 4.38782386e-02, -1.64018327e-03,
       -8.17672070e-03, -7.66070141e-03, -3.47447135e-02, 3.14867571e-02,
       1.60794742e-02, -3.06830388e-02, -3.33108753e-02, 1.34527925e-02,
       -3.02316770e-02, -1.92375295e-02, -9.93939675e-03,
       -4.27414440e-02, -2.10721185e-03, 5.31014474e-03, -1.99092720e-02,
       -1.59280561e-02, 2.23392453e-02, -2.08234675e-02, 3.90201434e-02,
       2.67261807e-02, -5.58706373e-02, -3.89414020e-02, -3.71175781e-02,
       -9.10723303e-03, -1.26084229e-02, 1.48573359e-02, 1.08058657e-02,
       5.42355441e-02, 4.53949906e-02, -1.44267157e-02, -3.19778547e-02,
       -1.46236802e-02, 8.36742390e-03, 1.85673647e-02, 5.87432720e-02,
       1.87996530e-03, -1.68553852e-02, -3.46805267e-02, -5.82005568e-02,
       -2.20323019e-02, 1.24132503e-02, -1.90816652e-02, 6.41680788e-03,
       1.74509566e-02, -2.96593029e-02, 6.42892625e-03, -1.94345638e-02,
       -2.39917301e-02, -3.80260572e-02, 8.86718649e-03, -2.38955743e-03,
       -3.68655659e-03, 1.18900696e-02, -2.47011874e-02, 5.16324900e-02,
       6.73660412e-02, 4.82347272e-02, 1.64533053e-02, 2.52772234e-02,
       4.59204763e-02, 4.96457368e-02, 8.91343430e-02, 4.15991843e-02,
       2.69984957e-02, 1.87650602e-02, 2.53975820e-02, 2.10277233e-02,
       6.52847216e-02, 4.65032496e-02, 5.34376353e-02, 4.18273583e-02,
       3.45618762e-02, 2.91440394e-02, 3.04391570e-02, 2.80024316e-02,
       3.03096650e-03, -1.06248250e-02, 4.67905402e-03, 1.57045200e-02,
       4.81586568e-02, 7.02703651e-03, -1.84970256e-02, -4.62221866e-03,
       6.27171854e-03, -4.53085527e-02, -4.41598380e-03, -2.14214046e-02,
       -2.29951441e-02, 1.20424889e-02, -7.72829168e-03, 3.15611549e-02,
       3.64933275e-02, 4.63936180e-02, 1.23775013e-01, 1.21807478e-01,
       5.99128790e-02, 2.26795673e-02, 4.32920232e-02, 3.27447355e-02,
       -2.53582038e-02, -3.09460051e-02, -1.26430467e-02, 2.55904142e-02,
       4.06221971e-02, -2.86587235e-02, -3.60546038e-02, -4.30041663e-02,
       -3.11267078e-02, 2.44655646e-02, 3.02403085e-02, 4.06712554e-02,
       5.67144752e-02, 3.61701399e-02, 2.74650604e-02, 2.76817329e-04,
       2.26308741e-02, 1.99176725e-02, -3.17968726e-02, -2.45350022e-02,
       -4.15235534e-02, -1.35833481e-02, -2.06602979e-02,
       -4.14811671e-02, -3.46227288e-02, -4.01995555e-02,
       -3.78028378e-02, 1.19513310e-02, -6.72638509e-03, -2.22504581e-03,
       7.39964284e-03, -4.22334038e-02, 1.72318649e-02, -2.05024295e-02,
       -1.52897835e-02, 2.05083212e-04, -1.55983865e-02, -1.16842166e-02,
       1.81201287e-02, 1.65032949e-02, -3.85098159e-02, -1.62130862e-03,
       -2.42827255e-02, -5.18016778e-02, -2.49354560e-02, 9.60955210e-03,
       -1.09566338e-02, -3.47220600e-02, -4.03127773e-03,
       -4.50852513e-02, 2.80457586e-02, 4.49912343e-03, 1.90111175e-02,
       9.96644329e-03, -1.34172235e-02, -4.41861413e-02, 1.33371083e-02,
       1.86351389e-02, -1.28724165e-02, 4.18910906e-02, -4.16220026e-03,
       -9.16095078e-03, -7.76826032e-03, 4.19878624e-02, -1.04468893e-02,
       -2.07018461e-02, -1.77874155e-02, -2.13445667e-02,
       -9.02707875e-03, -2.94546541e-02, -3.14230546e-02,
       -9.41376202e-03, 2.84967516e-02, 2.05854345e-02, 7.33349146e-03,
       1.56179769e-02, 7.33796647e-03, -6.10228674e-03, 1.58775281e-02,
       -1.20880418e-02, 2.03455705e-02, 1.48096895e-02, -1.49899004e-02,
       -3.24041955e-02, -1.87967774e-02, 2.33880896e-02, 3.11797746e-02,
       -7.22768856e-03, -2.03570500e-02, 2.96632536e-02, 2.98909601e-02,
       1.86154135e-02, 5.10366261e-03, 3.93442772e-02, -5.35058416e-03,
       3.34094800e-02, 1.07274521e-02, -3.57782096e-03, 3.51963229e-02,
       -8.92544538e-03, -4.94454205e-02, -2.11700574e-02,
       -6.91707537e-04, -7.92374182e-03, -3.44878584e-02, 6.04158547e-03,
       -1.30785936e-02, -8.05505831e-03, 3.84010077e-02, -8.20177235e-03,
       -1.37585569e-02, 8.75533652e-03, -6.21478120e-03, -7.01171672e-03,
       -1.05334930e-02, -1.93187781e-02, 3.69296467e-04, 1.26199387e-02,
       3.67934187e-03, -1.63473357e-02, 1.93695985e-02, -1.22956326e-02,
       -3.75966504e-02, -2.51607616e-02, -1.44378608e-02, 1.51430480e-02,
       4.34934758e-02, 2.92200036e-02, 1.36101758e-02, 2.71332432e-02,
       1.83079261e-02, -2.36285608e-02, -2.98594330e-02, 3.50154424e-03,
       1.61838587e-02, 3.34402472e-02, 1.14260940e-02, -6.67349063e-03,
       2.01571081e-02, 2.21193489e-02, -1.27609083e-02, -4.14183289e-02,
       -3.63846458e-02, -1.86632457e-03, 1.08078411e-02, 3.52519192e-02,
       1.24414787e-02, 1.64512433e-02, 1.87448580e-02, -5.41648688e-03,
       -1.21913608e-02, -2.71238163e-02, -3.28017585e-02, 2.11403426e-03,
       9.15753935e-03, -9.30116605e-03, -1.07725123e-02, 3.20055545e-03,
       -5.72554627e-03, -2.39853952e-02, -1.88178439e-02,
       -2.50787437e-02, 2.36241855e-02, 3.22439969e-02, 8.44460074e-03,
       -1.54939396e-02, 8.51085060e-04, -9.67462081e-03, 2.08236463e-03,
       -2.73156669e-02, 1.04661882e-02, -2.14544274e-02, 1.53914718e-02,
       1.93218663e-02, -1.71928369e-02, -1.49564939e-02, 1.90476459e-02,
       5.08295335e-02, 1.16918981e-02, -1.85455363e-02, -6.73520118e-02,
       -4.34098803e-02, -3.15271430e-02, -3.70701998e-02, 1.78344231e-02,
       -2.62935590e-02, -1.07757859e-02, 3.80311385e-02, -6.51941588e-03,
       -2.40127984e-02, -1.21538443e-02, -7.04924203e-03,
       -4.18579672e-03, 1.40288547e-02, -1.83223765e-02, 1.31715992e-02,
       -2.00300608e-02, -1.64579209e-02, -1.06874956e-02,
       -2.67255660e-02, -4.60772328e-02, -1.05641857e-02, 4.29222323e-02,
       -3.75502147e-02, 9.05383378e-03, 5.48446504e-03, 9.04029887e-03,
       -1.30181583e-02, 2.83287596e-02, 1.47179849e-02, 1.07682766e-02,
       1.02568353e-02, -4.42421213e-02, 3.02737802e-02, 7.11298957e-02,
       5.07393926e-02, -1.81548651e-02, -1.61808096e-02, -9.75260977e-03,
       -1.99437570e-02, 1.35589568e-02, -3.44986916e-02, 5.83978975e-03,
       3.44109386e-02, 1.83283817e-02, 1.45542268e-02, 6.73821289e-03,
       1.11639360e-02, -4.25494625e-04, 5.80367632e-03, -6.13207072e-02,
       1.24794114e-02, 6.23696037e-02, 4.50339951e-02, -9.99067328e-04,
       -9.67659708e-03, -2.06798092e-02, -2.34414674e-02,
       -4.96983342e-03, -8.15385208e-02, -1.68134458e-02, 1.67957228e-02,
       -1.03442026e-02, -1.38300639e-02, 2.24893074e-02, -3.77092720e-03,
       7.82255642e-03, 3.34834903e-02, -7.96446577e-03, 8.27406347e-03,
       3.41515876e-02, 1.43796979e-02, -2.17559021e-02, 2.46049371e-02,
       3.75901698e-03, 6.29151333e-03, 6.52470905e-03, -3.76778282e-02,
       -1.15092117e-02, 7.60651135e-04, -2.01986581e-02, 1.52834244e-02,
       3.43968682e-02, -1.23971077e-02, 1.75414793e-02, 3.62279005e-02,
       -2.19372250e-02, -2.64068078e-02, 2.14255434e-02, 1.12212980e-02,
       -1.09138740e-02, 1.19588636e-02, -5.91983739e-03, -7.33638601e-03,
       3.57159637e-02, -2.64679175e-02, -4.05468866e-02, 2.47690994e-02,
       -1.20584676e-02, -2.97644008e-02, -5.83966030e-03,
       -3.81205068e-03, 1.25600593e-02, 2.05810368e-02, 2.42887856e-03,
       4.20255726e-03, 6.21772483e-02, 1.37837641e-02, -2.36631390e-02,
       1.73922777e-02, -9.87326633e-03, -2.96341907e-02, 5.47629446e-02,
       -8.42474619e-05, -3.34872445e-03, 4.28560004e-02, 3.13752964e-02,
       7.88279064e-03, 1.46553395e-02, -1.66181836e-03, -1.21305222e-02,
       4.66373935e-02, 3.97188077e-03, -1.82610378e-02, 1.40356421e-02,
       1.24120610e-02, -2.09778780e-03, 2.61440482e-02, -1.45071242e-02,
       -3.01124565e-02, 4.42639180e-02, -1.76406838e-02, -9.73215792e-03,
       -1.67296268e-02, 3.63407959e-03, 5.02523407e-03, 4.21896055e-02,
       2.66165826e-02, 1.53750805e-02, -9.79313161e-04, -7.78958155e-03,
       -2.34602597e-02, 5.34496605e-02, 4.29585315e-02, 6.03035698e-03,
       -1.56871416e-02, -1.17196068e-02, 5.46535030e-02, 2.95153726e-02,
       -7.31231458e-03, -4.10717763e-02, 3.80515531e-02, 9.52337123e-03,
       2.48042569e-02, 4.49754186e-02, -6.24435006e-06, -6.52338471e-03,
       -1.97779834e-02, 2.37224670e-03, 2.19329097e-03, -3.08909994e-02,
       -1.34415058e-02, -1.42598024e-03, 1.07853860e-02, -1.59877706e-02,
       -3.07879620e-03, 2.16016527e-02, 5.47724264e-03, -2.37436164e-02,
       -2.30138488e-02, -1.81987952e-03, -1.39396917e-03,
       -1.26758125e-02, -7.33849453e-03, 6.92299902e-02, 6.03478141e-02,
       2.09295191e-02, -3.28518152e-02, 2.87604053e-02, -6.39659120e-03,
       -1.09691387e-02, 3.42560280e-03, -1.44544560e-02, 3.79903615e-02,
       4.12514545e-02, 1.44596789e-02, -1.15113493e-04, 5.64896548e-03,
       1.59024578e-02, 1.77635830e-02, -7.54593266e-03, -2.65368186e-02,
       -1.73822709e-03, 1.12007670e-02, 1.28887221e-02, -2.46431977e-02,
       -2.04337463e-02, -1.67488176e-02, -1.49237541e-02,
       -1.92249697e-02, -1.36034703e-02, -1.65329520e-02, 8.01335927e-03,
       3.66007979e-03, -2.66647339e-03, 1.78728299e-03, 8.31915531e-03,
       -4.23530564e-02, 1.00693423e-02, 1.22393044e-02, 5.45295514e-02,
       1.59513243e-02, 8.39932356e-03, -2.05605254e-02, 1.58466212e-02,
       1.23206889e-02, -1.64936576e-02, -8.09075031e-03, -1.21512432e-02,
       4.44472283e-02, -9.99891479e-03, 6.03483524e-03, -1.31502505e-02,
       2.24711141e-04, -1.75130647e-02, -3.65063511e-02, -9.22254007e-03,
       -6.66288985e-03, 1.35038067e-02, -5.66949486e-04, 1.12736542e-02,
       -8.79980158e-03, -9.50931013e-03, 1.63804949e-03, -3.51613946e-02,
       -1.35212261e-02, -2.63859555e-02, 8.62083212e-03, -2.41688564e-02,
       -2.90938318e-02, -1.83840413e-02, -9.45233647e-03,
       -2.28939205e-02, -5.76415239e-03, -1.78723913e-02,
       -3.82903963e-03, 5.38804866e-02, 4.01532874e-02, 3.17355879e-02,
       1.08835683e-03, 5.63450437e-03, -2.23407894e-02, -1.61930826e-02,
       -4.70504649e-02, -1.35125313e-02, 4.24587354e-02, 3.68641987e-02,
       2.06964165e-02, 1.17576637e-04, 1.12829879e-02, -2.35101376e-02,
       -3.30086611e-02, -1.25951227e-03, -2.49893102e-03, 2.35543903e-02,
       1.25198776e-03, -2.51772581e-03, -2.76470799e-02, 7.66717922e-03,
       -4.25638817e-02, -3.06261815e-02, -1.27086733e-02,
       -2.69933529e-02, 1.90290473e-02, 1.59350056e-02, 2.11537443e-02,
       -4.68998514e-02, -1.22094862e-02, -4.96518835e-02,
       -1.07628922e-03, -3.51080969e-02, -1.18175363e-02, 3.75652947e-02,
       6.10290244e-02, 1.52178360e-02, 7.95451831e-03, 2.08674110e-02,
       1.90966651e-02, -1.54792648e-02, -1.87366195e-02, -6.14918675e-03,
       8.83712899e-03, 4.89448337e-03, 2.67512463e-02, 6.93322020e-03,
       2.44548563e-02, 1.92666296e-02, 7.86550902e-03, -1.36837065e-02,
       -2.54513100e-02, 2.70850025e-02, 1.56564321e-02, -2.15717591e-02,
       -1.89270284e-02, -9.79685970e-03, -5.64718246e-03,
       -2.98113395e-02, 6.88488269e-03, -2.43983679e-02, -2.45928485e-02,
       -5.25185913e-02, -1.54560180e-02, -1.80128636e-03,
       -1.90808084e-02, 3.83706042e-03, 1.94603426e-03, 3.20830904e-02,
       3.97491455e-02, 6.63233772e-02, 5.73389716e-02, 7.06255138e-02,
       3.57139334e-02, 3.14795673e-02, 7.31980195e-03, -6.43129228e-03,
       2.93398891e-02, 4.94108424e-02, -1.32834995e-02, 2.82428274e-03,
       1.91181153e-02, 1.75661892e-02, 1.57763194e-02, 6.99255243e-03,
       -3.36769447e-02, 4.08602171e-02, 1.12852920e-02, 2.24409136e-03,
       -2.76078619e-02, 2.03730743e-02, 6.86228089e-03, -1.64587609e-02,
       3.32338532e-04, -4.02622670e-02, -5.28106047e-03, 1.40795037e-02,
       -2.61222180e-02, -6.01664884e-03, -2.00778171e-02,
       -1.21157411e-02, -3.12771425e-02, 5.88979805e-03, 3.56724299e-02,
       4.59223054e-02, 7.03514516e-02, 6.42040521e-02, -4.08822577e-03,
       2.08179839e-02, 6.79153483e-03, 1.18640717e-02, 1.45736914e-02,
       1.51267927e-02, -1.95723143e-03, -1.63299665e-02, -2.04215888e-02,
       -2.06730869e-02, -2.60980390e-02, -2.02347618e-02,
       -3.98122333e-02, -2.49527451e-02, 2.23046988e-02, 1.39466422e-02,
       5.11256568e-02, 2.85513215e-02, 6.77978853e-03, -2.31857095e-02,
       1.65690633e-03, -1.57871358e-02, 1.11533506e-02, 2.11223308e-02,
       9.20483284e-03, -2.41519902e-02, -4.64180373e-02, -3.47939543e-02,
       -2.72688717e-02, -2.90359720e-03, -3.11486777e-02,
       -4.35523596e-03, 5.75949326e-02, -3.24246567e-03, -3.56268659e-02,
       -1.62477382e-02, -3.21928039e-02, -2.58453051e-03,
       -5.12926606e-03, -2.44852472e-02, 1.47622991e-02, 3.03156450e-02,
       -1.98534727e-02, -9.42466594e-03, -6.98262453e-03,
       -3.06383092e-02, 3.27920727e-02, -1.21721923e-02, -3.67193185e-02,
       1.50651648e-03, 2.65960023e-02, 2.05205884e-02, -9.78885219e-03,
       1.36367949e-02, -2.91151106e-02, 2.13058479e-02, 6.97586394e-04,
       -4.68124934e-02, 8.01712833e-03, 9.65485442e-03, -4.49104607e-03,
       -5.52567979e-03, 1.92699451e-02, -1.38851861e-02, 7.11989105e-02,
       -1.60609297e-02, -7.02313036e-02, -2.28648912e-02,
       -1.83493795e-03, -4.16464582e-02, -4.21605557e-02,
       -3.55718993e-02, 1.80563740e-02, 3.61826643e-02, -1.00664527e-03,
       -2.01803595e-02, 2.46576103e-03, 3.91924521e-03, -2.29336470e-02,
       -2.27398053e-02, 2.02684123e-02, -4.82250191e-03, 5.00881150e-02,
       -1.85371365e-03, -1.51593480e-02, 6.81398669e-03, 3.82185392e-02,
       9.62987833e-04, 4.47885413e-03, -1.83472945e-03, -2.50636227e-02,
       2.37424392e-02, -1.31533220e-02, -2.38291025e-02, 2.69205142e-02,
       2.78588887e-02, 4.74658124e-02, 9.68824793e-03, 5.98553903e-02,
       7.33154034e-03, 3.07707340e-02, 3.71113676e-03, -7.26549933e-03,
       4.51261289e-02, -1.32307662e-02, -1.00248139e-02, -2.03903876e-02,
       1.08797271e-02, -2.00996865e-02, -6.82324287e-04, -1.20630935e-02,
       -3.62167205e-03, -1.91651774e-03, 1.88592053e-03, 5.06561249e-03,
       -1.28783761e-02, 2.31099017e-02, -1.67749468e-02, 6.06601918e-03,
       3.94599483e-04, 1.85158774e-02, 3.58283371e-02, 1.86986774e-02,
       1.25938542e-02, -9.96114453e-04, 5.70273492e-03, -7.92904815e-04,
       2.78860610e-02, 1.70626920e-02, -1.93742029e-02, -3.75410030e-03,
       -2.01355433e-03, 2.93058045e-02, -2.07063183e-03, -5.81498956e-03,
       -2.94438694e-02, 5.04174158e-02, 3.23021337e-02, -2.14854777e-02,
       -9.10788402e-03, 7.21802190e-03, 1.58648193e-02, -2.85958243e-03,
       1.07385218e-02, -7.99239613e-03, 1.09972805e-02, -1.61737837e-02,
       -5.39202616e-03, -1.20681617e-02, 5.32312319e-03, 4.57247719e-03,
       -1.15734246e-03, -1.82361249e-02, -2.04460695e-02,
       -1.33066783e-02, -7.98421446e-03, -8.55846144e-03,
       -1.32382121e-02, 2.18961551e-03, 2.89616343e-02, 1.70965437e-02,
       3.50882597e-02, 7.71589996e-03, 1.58314258e-02, 2.81681283e-03,
       -5.55927167e-03, 4.95445589e-03, 2.63174027e-02, 3.77594400e-03,
       1.07151018e-02, -5.56381419e-03, 5.61449677e-03, -3.15262116e-02,
       -1.94170699e-02, -7.77688064e-03, 2.78339479e-02, -2.99094375e-02,
       6.46469370e-03, 2.18994729e-03, -2.03832798e-03, -4.42160945e-03,
       8.64108372e-03, 1.84139963e-02, 8.13273806e-03, -2.83315871e-02,
       -5.42481914e-02, -1.01052066e-02, -2.46485788e-02, 1.22395542e-03,
       -9.64526460e-03, -2.87196934e-02, 1.54594639e-02, -1.39187872e-02,
       -3.76357511e-02, -1.63990371e-02, -1.28580276e-02, 3.19089070e-02,
       5.53676067e-03, -9.82655957e-03, -2.66627744e-02, -2.20940504e-02,
       1.51981013e-02, -1.88574940e-03, -3.17638256e-02, 1.64456130e-03,
       -4.98436298e-03, -1.48522137e-02, -4.64872569e-02,
       -4.48225439e-02, -7.40534440e-03, 2.64096148e-02, -4.02238406e-02,
       -2.40422040e-02, 9.03857127e-03, 1.74338240e-02, 1.78191531e-02,
       1.91822685e-02, -1.84897035e-02, -5.57240518e-03, 3.16626579e-02,
       -2.88725682e-02, -2.00725179e-02, -1.81066953e-02, 7.99554121e-03,
       5.71979629e-03, 2.28369478e-02, -3.20317335e-02, -4.66166288e-02,
       -3.44404718e-03, -5.77226654e-02, -2.32906155e-02,
       -5.50381280e-03, -1.53811593e-02, -2.08223099e-03, 1.11498469e-02,
       2.58793011e-02, 4.40104399e-03, 2.59062815e-02, -3.45376171e-02,
       -1.58187579e-02, -3.84808332e-02, -2.57442854e-02,
       -6.26739440e-03, 1.74196661e-02, -1.94102973e-02, -5.24194874e-02,
       -1.89992581e-02, -1.52009102e-02, -1.05004488e-02, 3.14805508e-02,
       -1.25674875e-02, 3.58482227e-02, 2.58021932e-02, 1.69915170e-03,
       -5.20600602e-02, 5.45431161e-03, -1.68567139e-03, -8.11208878e-03,
       4.25820192e-03, -2.27568541e-02, -1.07940296e-02, -2.40515475e-03,
       1.11972205e-02, -3.40108350e-02, 4.57373746e-02, -3.12134661e-02,
       -2.09296355e-03, 1.83524005e-02, 8.36343411e-03, 4.70477007e-02,
       2.91658733e-02, -7.88404047e-03, -6.01091050e-02, -1.61102973e-02,
       -2.09621809e-04, -1.80782229e-02, 6.71083899e-03, 7.02976622e-03,
       -2.26376564e-04, -4.66714799e-03, -6.97445823e-03,
       -3.95259075e-02, -1.61861423e-02, -2.37549674e-02,
       -6.39786711e-03, 3.94437788e-03, -5.09922812e-03, -1.67511182e-03,
       1.85716897e-02, 3.59609276e-02, -7.72332447e-03, 4.56216224e-02,
       -2.52402760e-03, -3.15380991e-02, -1.93305332e-02,
       -3.43145728e-02, -2.54003350e-02, 6.81552710e-03, 9.40989889e-03,
       -1.12979067e-02, -1.18773403e-02, -2.25819852e-02, 7.10382638e-03,
       4.11431212e-03, 6.67482335e-03, 1.60508556e-03, -2.30268226e-03,
       1.30404793e-02, -3.07843722e-02, 9.88134462e-03, 4.07802034e-03,
       -8.17888323e-03, -3.57527216e-03, -4.53917570e-02,
       -3.13540287e-02, 1.25172809e-02, -2.32839044e-02, -8.15938637e-02,
       -8.93317442e-03, -7.91831687e-03, 9.45975911e-03, 3.44021767e-02,
       -3.29395663e-03, 1.96198151e-02, 4.51031141e-03, 3.98945883e-02,
       1.33883320e-02, -6.38969010e-03, -1.14543512e-02, -4.86413715e-03,
       1.00195901e-02, -1.26575064e-02, -2.09683776e-02, -1.99643280e-02,
       -4.86258464e-03, -6.53422019e-03, -1.99536420e-02,
       -8.34806263e-03, -7.61902612e-03, 3.15843336e-02, -1.43534718e-02,
       1.28942998e-02, 4.19839052e-03, 4.43221349e-03, -5.26349768e-02,
       1.40985129e-02, -1.06663322e-02, -2.90376078e-02, 5.14252037e-02,
       6.66024629e-03, -4.19129292e-03, 3.33256531e-03, -1.43209193e-02,
       -3.30826752e-02, -5.32918936e-03, -9.44968406e-03,
       -1.18061551e-03, -2.78830121e-04, -8.59402493e-03,
       -2.15459280e-02, -3.49328779e-02, 7.55274249e-03, 2.22301446e-02,
       -2.29409356e-02, -1.85121540e-02, -2.91588325e-02,
       -1.87122505e-02, -5.20636374e-03, -2.85771880e-02,
       -2.37484486e-03, -1.92533769e-02, 1.35003508e-03, -9.57535172e-04,
       -1.96933374e-02, 1.11084408e-03, 2.89771203e-02, 1.26344303e-03,
       1.08104507e-02, 7.29757873e-03, 2.39823032e-02, 1.57528687e-02,
       -1.96402743e-02, -2.21305899e-02, -1.59105547e-02, 3.08982586e-03,
       -1.22134993e-02, -1.61876585e-02, -4.33247350e-03, 1.34655526e-02,
       -1.96653046e-02, -1.51270619e-02, -1.51590286e-02,
       -4.32443339e-04, 4.55555692e-03, -1.72823737e-03, 2.05988828e-02,
       -2.52915244e-03, 2.17780061e-02, 1.14230784e-02, 1.47996759e-02,
       1.75679773e-02, 3.20338346e-02, 5.95978554e-03, -7.28671951e-03,
       5.40807890e-03, -4.81800362e-02, -1.69783854e-03, -1.79448519e-02,
       7.61189091e-04, 3.58574092e-03, 1.35420775e-02, -4.02283520e-02,
       -3.39783207e-02, 3.27408826e-03, -1.40261352e-02, 1.21030789e-02,
       -3.94229293e-02, 2.71719205e-03, 3.79233109e-03, 2.92275712e-04,
       -4.45489585e-02, -4.14541587e-02, 3.59703111e-03, -2.13664751e-02,
       -2.16279365e-02, -7.68905357e-02, -2.76546404e-02, 2.55395342e-02,
       -5.92935085e-03, 3.50385793e-02, 5.54946344e-03, 2.92366035e-02,
       1.86956059e-02, 2.23977100e-02, -1.07633909e-02, 1.07141016e-02,
       -3.79954069e-03, -3.46317738e-02, 2.06874982e-02, -2.55921539e-02,
       -2.24608020e-03, 2.16140803e-02, 2.92897951e-02, -1.76979154e-02,
       7.32030254e-03, -2.85266172e-02, -2.44677607e-02, -8.47376976e-03,
       -3.95400934e-02, 2.12407205e-02, 3.63775976e-02, 1.90372486e-02,
       -5.19095249e-02, 1.47701590e-03, 2.67145969e-03, -4.20686863e-02,
       1.47958258e-02, -5.56087196e-02, 1.12062393e-04, 6.90074731e-03,
       2.00922731e-02, -2.01998763e-02, 2.29203776e-02, -2.38905735e-02,
       -9.72177659e-04, 3.15244794e-02, -2.54935981e-03, 1.98675226e-02,
       3.29926573e-02, 2.41461881e-02, 6.54430967e-03, 7.30287610e-03,
       -2.42548697e-02, -2.73006298e-02, 6.18969672e-04, -1.30726844e-02,
       -2.57422868e-03, -3.38774249e-02, -1.06878933e-02, 2.04444304e-03,
       -3.14004421e-02, -4.54045497e-02, -1.72947105e-02, 3.57081480e-02,
       -2.82963812e-02, 3.85376113e-03, 2.58508716e-02, 3.65690403e-02,
       1.47935757e-02, 1.67828612e-03, -3.57311480e-02, -4.43566814e-02,
       -9.87805426e-03, -6.44171163e-02, -3.58692035e-02,
       -1.14913695e-02, -4.35917340e-02, -5.45636490e-02,
       -3.09950169e-02, -4.48246486e-02, -3.64738260e-03, 5.09788506e-02,
       1.69673916e-02, 2.59905215e-02, 5.02172764e-03, 2.83708796e-02,
       3.12333032e-02, 1.41280051e-02, 1.24887470e-02, -3.17304432e-02,
       2.62000901e-03, 2.16123145e-02, -1.55911210e-03, -1.34032136e-02,
       7.20541459e-03, 2.19766106e-02, 1.57549046e-02, 2.40686648e-02,
       -2.88083125e-03, -3.44906840e-03, -5.13243750e-02,
       -1.87968984e-02, 1.39974919e-03, 2.99701300e-02, 1.72500219e-02,
       2.96627600e-02, -1.83032872e-03, -4.01334791e-03, -1.08319698e-02,
       -5.29833604e-03, -1.06808767e-02, 3.26466970e-02, 1.54735455e-02,
       -8.34152475e-03, 1.79411971e-03, -6.46308856e-03, 5.83687983e-03,
       9.94063262e-03, 1.30370341e-03, -5.91345306e-04, 2.13980651e-03,
       -1.73490751e-03, 2.65141428e-02, 1.66172311e-02, 5.54049434e-03,
       7.06189312e-03, -1.02756210e-02, -3.51411849e-02, -2.25191917e-02,
       1.60225551e-03, 4.98814881e-03, 3.06520034e-02, -8.30323063e-03,
       -3.14789475e-03, 4.56379401e-03, -4.74966364e-03, -1.09098935e-02,
       -7.14246742e-03, 3.63424160e-02, 3.16703245e-02, 2.33617052e-02,
       4.84815706e-03, -1.29998839e-02, -5.53016271e-03, -4.57154401e-02,
       -3.43681946e-02, -4.39330610e-03, 2.66901474e-03, 2.91624907e-02,
       -2.12457078e-03, -1.65689699e-02, -6.98572723e-03, 1.89510211e-02,
       -1.96483685e-03, -2.74337968e-03, 4.34830710e-02, -1.84989441e-03,
       1.67164132e-02, 1.70575455e-02, -3.92156616e-02, 8.20832606e-03,
       5.40847844e-03, -2.83000581e-02, 9.92486067e-03, 3.07018775e-02,
       -2.22328044e-02, 1.16933510e-02, -1.81238586e-03, -6.25991598e-02,
       -6.57936558e-03, 1.73705984e-02, -2.01764144e-02, 3.21085099e-03,
       1.84287801e-02, -2.57741921e-02, 2.27994137e-02, -2.47748438e-02,
       -1.92418303e-02, 3.06668598e-02, 3.27769257e-02, -2.91845724e-02,
       -3.85634601e-02, -2.19778251e-02, -2.50000935e-02,
       -1.20771129e-03, -2.88810376e-02, -3.89021672e-02, 3.77262086e-02,
       -1.42983961e+00 ]
