%YAML:1.0
---
myHogDector: !!opencv-object-detector-hog
   winSize: [ 64, 128 ]
   blockSize: [ 16, 16 ]
   blockStride: [ 8, 8 ]
   cellSize: [ 8, 8 ]
   nbins: 9
   derivAperture: 1
   winSigma: 4.
   histogramNormType: 0
   L2HysThreshold: 2.0000000000000001e-01
   gammaCorrection: 1
   nlevels: 64
   signedGradient: 0
   SVMDetector: [ 8.49310774e-03, -4.83263023e-02, -2.15731598e-02,
       -4.84976126e-03, 1.26817925e-02, -1.19209345e-02, 9.03828070e-03,
       -1.74076259e-02, 4.02540937e-02, 1.27140488e-02, -5.28909359e-03,
       9.04769637e-03, 3.26665584e-03, 1.01777259e-02, 9.99539159e-03,
       1.54093402e-02, 3.11919232e-03, 1.07346475e-02, 3.16845775e-02,
       -2.77524218e-02, -1.39053026e-02, 3.23166922e-02, 2.14041839e-03,
       5.34418365e-03, -1.29361134e-02, -3.55870798e-02, 1.23661980e-02,
       1.06747234e-02, 7.69098243e-03, 1.33597702e-02, 3.01659126e-02,
       -1.01933023e-02, 1.77813917e-02, 2.18490930e-03, -7.98187032e-03,
       -2.06422824e-02, 4.11598099e-04, -4.04406665e-03, -2.41326750e-04,
       2.13744435e-02, -3.97470663e-04, -1.37632368e-02, -1.50665836e-02,
       1.23565262e-02, 1.48838870e-02, 4.61537279e-02, 7.50721944e-03,
       2.73873564e-02, 4.00188081e-02, 1.14237657e-02, 2.37884745e-02,
       1.78013672e-03, 2.21610703e-02, 2.94727571e-02, -1.06065988e-03,
       6.62069023e-03, 8.55874363e-03, 1.44662801e-02, -1.86556224e-02,
       -8.31025001e-03, -2.08279490e-02, -4.45682090e-03,
       -2.23381743e-02, 2.31697410e-02, 5.23937726e-03, -1.24760941e-02,
       3.85065330e-03, -5.02900966e-03, 1.01413270e-02, -2.26251232e-05,
       -7.91037455e-03, 1.08571360e-02, 1.60225797e-02, 1.28328810e-02,
       2.30359491e-02, 1.21088885e-02, 1.18625527e-02, 7.72659807e-03,
       7.85851572e-03, 1.52145755e-02, -4.17006016e-03, 1.10179721e-03,
       6.17116399e-04, 9.44292359e-03, 2.80305714e-04, -9.83295031e-03,
       1.91204157e-02, 1.41126439e-02, 2.52050590e-02, 1.13711907e-02,
       6.15527947e-03, 1.43891927e-02, 8.19447357e-03, 1.06689506e-04,
       -7.02413963e-03, -4.12166771e-03, -1.58027234e-03, 1.59260947e-02,
       2.15662755e-02, 4.73508425e-03, 1.19527066e-02, 7.12751993e-04,
       7.52384681e-03, -5.23141734e-02, 4.38822753e-04, 2.45278180e-02,
       3.17005515e-02, 2.93584559e-02, -4.05184599e-03, 1.46865034e-02,
       3.62283364e-03, -2.36288570e-02, -9.47931316e-03, -3.14888381e-03,
       -6.19514612e-04, -1.26664741e-02, 3.64089996e-04, -2.34674336e-03,
       6.30085915e-03, -2.77724992e-02, -1.65851060e-02, 6.14010682e-03,
       1.67972967e-02, -1.36206802e-02, -1.07761519e-02, 7.79782189e-03,
       -1.12639805e-02, 2.16798838e-02, 1.30418772e-02, 4.65534814e-03,
       -1.17251184e-02, -8.93507898e-03, 9.36873537e-03, 1.48778018e-02,
       -9.69236530e-03, -2.58056354e-02, -1.00043183e-02,
       -1.68654248e-02, -8.39829072e-03, 1.13261864e-02, -1.02323117e-02,
       -8.44814535e-03, 9.92721692e-03, -2.47847009e-02, -1.64077152e-02,
       3.96152772e-03, -3.19236070e-02, 2.96106073e-03, 3.45910676e-02,
       3.40125896e-02, -1.11490702e-02, 5.52670704e-03, 7.91584607e-03,
       -2.65226215e-02, -1.26178367e-02, -2.49903053e-02,
       -1.37262885e-02, 3.65120545e-02, 3.98088619e-03, -2.52912920e-02,
       8.93434137e-03, -1.34775164e-02, 1.15276978e-03, 4.31332961e-02,
       -2.32402235e-02, 1.20925102e-02, 1.74241848e-02, 3.32909748e-02,
       1.32056111e-02, 3.58881876e-02, -7.14581460e-03, -1.99536737e-02,
       2.71424395e-03, -3.69684137e-02, -2.46846285e-02, 9.19613335e-03,
       1.59757528e-02, 6.16155053e-03, -1.08958902e-02, -3.69300395e-02,
       -1.84043385e-02, -1.48253813e-02, -2.21786741e-02, 4.75912401e-03,
       3.19120102e-02, 9.29608475e-03, -2.28531845e-02, 1.90758221e-02,
       4.35612584e-03, -1.41880158e-02, -7.38391327e-03, -3.79512087e-02,
       -1.48985181e-02, 1.33116813e-02, -3.41618136e-02, -1.19123338e-02,
       9.72373970e-03, 6.35348912e-03, 3.54633317e-03, 2.30589695e-03,
       -1.06113385e-02, 1.44256689e-02, 2.50509810e-02, 3.68532911e-02,
       -1.61385257e-02, 1.65175926e-02, -3.46996635e-02, -1.36323301e-02,
       1.61762573e-02, -1.54994372e-02, -2.23960988e-02, -2.59654634e-02,
       -5.79877719e-02, -3.44669335e-02, 4.61672340e-03, -7.04333186e-03,
       -7.50175025e-03, 1.88953970e-02, -1.91099327e-02, 1.25181265e-02,
       7.89114926e-03, -1.68297328e-02, -2.96983705e-03, 3.31041925e-02,
       3.45363393e-02, -2.57290676e-02, -2.25659087e-02, -2.88416967e-02,
       -7.69872544e-03, 2.21990398e-03, -2.55875867e-02, -1.29600866e-02,
       3.88327353e-02, -7.09965033e-03, -7.23124575e-03, 2.08638348e-02,
       -1.97705626e-03, 4.63838801e-02, 1.07076773e-02, -2.53469776e-03,
       -9.13020503e-03, 2.48444658e-02, 1.19563583e-02, -2.21492741e-02,
       9.35157237e-04, -1.51659204e-02, -1.04869194e-02, -1.17914816e-02,
       -1.86924096e-02, -3.36913206e-02, 2.68782931e-03, -3.66453081e-02,
       8.79159605e-04, -4.19877091e-04, -2.32501887e-02, 1.82991028e-02,
       2.29526181e-02, 1.58644542e-02, -1.20258925e-03, 1.79210827e-02,
       -1.13194278e-02, -3.29048112e-02, -1.22029521e-02,
       -2.10399013e-02, -1.61175616e-02, -1.67018306e-02,
       -1.38365896e-02, -4.32179682e-02, 2.28760131e-02, -1.55115891e-02,
       1.85396597e-02, 3.50888148e-02, 9.25910287e-03, 7.99646508e-03,
       -1.49444188e-03, -3.69383185e-03, -3.08719855e-02, 1.85617320e-02,
       2.17065606e-02, -1.91961210e-02, -7.12634996e-03, -8.07550550e-03,
       1.70353008e-03, -1.27539858e-02, -5.70210814e-03, -2.34475769e-02,
       3.26220058e-02, 1.41996390e-03, -1.27847996e-02, -1.79523986e-03,
       2.21312400e-02, -9.43437777e-03, -1.52539173e-02, -1.00012003e-02,
       -2.15144530e-02, 2.57186685e-02, 1.85389388e-02, 3.69649334e-03,
       -1.09830461e-02, -1.17567601e-02, -1.90387256e-02, 5.14355605e-04,
       -5.57970628e-03, -1.53382756e-02, 6.38866471e-03, -1.34575916e-02,
       1.28740706e-02, -2.54599489e-02, 1.96005795e-02, -6.50586886e-03,
       -1.59857962e-02, 1.15993246e-02, -1.14356847e-02, 3.48498486e-02,
       2.93201692e-02, -1.50965564e-02, 1.24122640e-02, -2.45712721e-03,
       -1.72737904e-03, -1.62228718e-02, -1.62098017e-02,
       -9.76181589e-03, -4.48550750e-03, -2.65713707e-02, 1.11266458e-02,
       -1.97290163e-02, -1.73724927e-02, 6.73353625e-03, 2.53130245e-04,
       -3.81336338e-03, -6.90937508e-03, -1.42187895e-02, 2.63968017e-02,
       -6.49572583e-03, -2.73609236e-02, -5.34548722e-02,
       -3.15523855e-02, 5.48437145e-03, 7.67886825e-03, -8.94220453e-03,
       -2.39777081e-02, 2.05970388e-02, 1.15585718e-02, 2.58144904e-02,
       1.04269488e-02, 3.91320512e-02, 1.55902356e-02, 5.98330400e-04,
       5.69530996e-03, -2.55149323e-03, -1.84328761e-02, -2.45178062e-02,
       5.12014842e-04, -1.44100310e-02, 9.50807706e-03, -3.04958206e-02,
       -6.58671779e-04, 7.65792653e-03, 1.39259985e-02, -1.92727428e-02,
       -1.35183067e-03, 7.24285515e-03, -2.57442333e-02, -1.17328402e-03,
       6.30548969e-03, 3.60837509e-03, -3.01684681e-02, -2.53718141e-02,
       3.06572928e-03, -4.14243229e-02, 8.48682877e-03, -1.38608795e-02,
       3.89760733e-03, -1.92174502e-02, -2.21240595e-02, -1.69603061e-02,
       4.81704529e-03, -1.17612332e-02, -6.64637145e-03, 8.74247518e-04,
       4.44669742e-03, 7.27539510e-03, 7.46055832e-03, 2.76057031e-02,
       -7.65285949e-05, 2.21205037e-02, -2.93959165e-03, -1.58267636e-02,
       2.04056557e-02, -8.06942955e-03, 1.64245460e-02, -5.70334960e-03,
       -1.12150582e-02, -6.34645252e-03, 3.51552516e-02, -2.19610315e-02,
       -3.93625796e-02, 9.10561532e-03, 4.06343228e-04, -1.37959970e-02,
       -2.07706932e-02, -2.29198672e-03, -1.95784513e-02, 1.03092110e-02,
       2.21245131e-03, -2.20433585e-02, 2.59976159e-03, -4.80932519e-02,
       -5.19037321e-02, -2.07852498e-02, -7.41926348e-03,
       -4.74278741e-02, -1.69418771e-02, -2.29049623e-02,
       -3.92083370e-04, 2.45912373e-02, -1.85002573e-02, -5.97463222e-03,
       2.38892213e-02, 2.10872348e-02, 3.37257073e-03, 2.65256464e-02,
       2.62464173e-02, -1.84660628e-02, 2.51656002e-03, -1.02580674e-02,
       -1.13111846e-02, 3.76614481e-02, 2.40832493e-02, -1.54460855e-02,
       -9.96234361e-03, -7.45483721e-03, -8.94000009e-03, 1.95795950e-02,
       -9.84549336e-03, -5.67268487e-03, -2.56535877e-02,
       -9.23046377e-03, -1.83484871e-02, -1.26185119e-02,
       -4.71852766e-03, -6.85825618e-03, -4.24377900e-03,
       -9.06894915e-03, -1.72074158e-02, -7.96940736e-03,
       -2.61498019e-02, -8.73025600e-03, 1.75091252e-02, 6.37380593e-03,
       1.13412961e-02, 2.38293614e-02, 2.36433800e-02, 3.56470793e-02,
       1.07607748e-02, 1.17268478e-02, 2.53289938e-02, 1.13757830e-02,
       -1.00280894e-02, 1.56620611e-02, 3.63443629e-03, 2.61485688e-02,
       1.17578190e-02, 1.08559104e-02, 1.56393535e-02, 1.74763184e-02,
       -3.14137153e-03, -2.13880278e-02, -5.66135487e-03, 9.99202672e-03,
       2.53935698e-02, 1.41175464e-02, 9.96664353e-03, -1.11157689e-02,
       -1.58651713e-02, 3.26432995e-02, -1.58435421e-03, -2.37293374e-02,
       -2.85914820e-02, -1.20791038e-02, 1.83057226e-02, 1.04176784e-02,
       1.00075575e-02, -2.79062074e-02, -9.84711945e-03, -1.84860621e-02,
       2.16381829e-02, 4.44595609e-03, 2.14974862e-02, -1.61520788e-03,
       2.09853128e-02, 5.98958284e-02, 3.03631672e-03, 1.99571904e-03,
       1.77716948e-02, -2.20589172e-02, -2.05421224e-02, 2.43691560e-02,
       2.12281458e-02, 2.05380153e-02, 1.67340692e-02, -3.66570279e-02,
       -2.76667364e-02, 1.35085844e-02, 8.25080369e-03, -2.88829450e-02,
       -2.40124613e-02, 3.19599058e-04, 4.91997600e-03, 3.06474585e-02,
       5.12975920e-03, 8.08408298e-03, 2.48891897e-02, 1.46802077e-02,
       -5.16962931e-02, -3.75808682e-04, 2.18360294e-02, -2.27670930e-02,
       -4.76114126e-03, -1.05959214e-02, -3.10546113e-03, 1.69761684e-02,
       -1.53479297e-02, -2.79879440e-02, 2.78411806e-02, 1.40819075e-02,
       1.44449575e-02, 3.32068093e-02, -1.25563294e-02, -6.68843102e-04,
       4.58331266e-03, -1.85311597e-03, -4.33431566e-02, 8.26296024e-03,
       -1.03132334e-02, 1.67949628e-02, 1.99703351e-02, 7.68178282e-03,
       -2.63339444e-03, -3.64382379e-03, 4.54468466e-02, -9.56253987e-03,
       -4.78831865e-03, 2.05207318e-02, 1.36190094e-02, 1.68129131e-02,
       -4.86484962e-03, -2.36936770e-02, 7.42065720e-03, 3.98093946e-02,
       9.80741810e-03, 1.86036471e-02, 8.63242988e-03, 1.45651735e-02,
       2.15544961e-02, 1.81527119e-02, 2.12140428e-03, 1.70249250e-02,
       -1.60520524e-03, -2.59268656e-02, -9.06236656e-03, 2.29535904e-02,
       7.52701599e-04, 9.93644446e-03, -2.07564943e-02, -2.10971590e-02,
       7.29634333e-03, -5.80218667e-03, -2.34942399e-02, 1.84804411e-03,
       8.59380361e-06, -1.49781881e-02, 3.71575691e-02, 6.36607502e-03,
       2.30369046e-02, 9.53540020e-03, -2.69859098e-03, -7.74839846e-03,
       -1.79110505e-02, -1.59256253e-02, 2.14908943e-02, -3.10691562e-03,
       -1.75111741e-02, 9.78264492e-04, 6.62650587e-03, 2.05053650e-02,
       3.37816379e-03, -3.41591872e-02, -2.58727018e-02, 2.15377454e-02,
       -9.66510642e-03, -1.00901462e-02, -1.49418721e-02, 1.97802000e-02,
       -1.84064079e-02, -9.91780683e-03, 7.75449956e-03, -1.91832730e-03,
       1.67039018e-02, 1.53628336e-02, -9.97996330e-03, -1.08492533e-02,
       -1.17713390e-02, 2.80705765e-02, -2.47220416e-02, -1.71975568e-02,
       3.17748636e-03, -1.17956838e-02, 6.63515972e-03, -4.55678068e-03,
       -2.69130524e-02, 1.53047722e-02, 6.47557387e-03, -1.51457824e-02,
       -2.99804262e-04, 5.38514741e-03, 3.98515277e-02, -2.93504503e-02,
       -1.70366652e-02, -2.02670824e-02, 1.20863190e-03, -8.44752975e-03,
       -8.68505612e-03, 2.43176217e-03, 1.12474908e-03, -8.21563229e-03,
       1.27761427e-03, 3.05418931e-02, 1.86016690e-02, 1.13556599e-02,
       2.89977603e-02, -2.40233596e-02, -9.75525100e-03, 1.62745621e-02,
       4.59975675e-02, 3.57163022e-03, -5.12576802e-03, -9.19025484e-03,
       1.75462626e-02, -2.79417988e-02, -3.35773900e-02, -6.85745524e-03,
       5.34626248e-04, -1.80505402e-02, -3.71778221e-03, 2.54627634e-02,
       2.18665954e-02, -2.03585569e-02, -1.31702181e-02, -3.21172806e-03,
       4.49413341e-03, -4.66122329e-02, 1.20722782e-02, -9.73404199e-03,
       1.52638899e-02, 2.30333046e-03, -2.24783570e-02, 5.33250440e-03,
       1.89670511e-02, -1.75321437e-02, -3.01415380e-02, 3.92398946e-02,
       3.25462432e-03, 8.58425908e-03, 2.70880503e-03, -1.74940508e-02,
       -4.43326496e-02, 2.57842746e-02, 2.66401172e-02, -3.46653536e-03,
       -1.12162856e-02, -3.96106429e-02, 1.40786311e-02, 1.53614273e-02,
       -4.91453568e-03, -2.25594603e-02, 3.68102081e-02, 1.45856509e-04,
       -2.55461391e-02, -1.99819705e-03, -2.38146484e-02,
       -1.91862565e-02, -2.61214655e-02, -4.23713401e-02, 3.75778787e-02,
       6.24954887e-02, -3.67558934e-03, -1.26692734e-03, 2.09708624e-02,
       9.43699293e-03, -4.08647023e-03, 5.52897714e-03, -1.06109306e-02,
       1.30844135e-02, 9.57690738e-03, -4.57335375e-02, -2.96275169e-02,
       4.98077413e-03, -6.24286337e-03, -8.49908683e-03, -4.00761236e-03,
       -3.27002145e-02, 4.65229973e-02, 1.02144442e-01, 3.07412376e-03,
       5.00461366e-03, 8.43952689e-03, 4.66717081e-03, -5.19145140e-03,
       1.01565048e-02, -2.60095038e-02, 1.18899886e-02, 3.64473984e-02,
       -5.73440008e-02, -1.20978532e-02, 1.07136387e-02, -1.90429129e-02,
       -1.91735383e-02, -2.57603172e-02, -2.37015896e-02, 5.65168075e-03,
       1.49989862e-03, -1.97307039e-02, -9.82046686e-03, 2.89439224e-02,
       1.35174664e-02, -1.35779493e-02, 1.80855617e-02, 1.20845614e-02,
       -1.17678866e-02, 9.98676941e-03, -5.04628522e-03, 1.95542052e-02,
       1.87153257e-02, -2.79011913e-02, -4.77600321e-02, 1.37543613e-02,
       7.40553858e-03, 7.84149487e-03, 3.75179872e-02, -3.74878728e-04,
       2.19392050e-02, 1.95697993e-02, 1.58260930e-02, 1.89671386e-02,
       1.61135346e-02, -1.81063600e-02, -2.60138847e-02, 1.51299713e-02,
       1.92635041e-02, 1.38445683e-02, 1.30686043e-02, -6.22699969e-03,
       -5.66521520e-03, 1.17867312e-03, -2.30422709e-02, 5.93540666e-04,
       3.47293587e-03, 3.25871748e-03, 2.80435663e-02, 3.83273810e-02,
       -1.82128011e-03, -2.17283312e-02, 1.69932991e-02, 4.31529619e-03,
       7.82504119e-03, -3.35003971e-03, -3.68641340e-03, -1.62775591e-02,
       1.68779790e-02, -7.53361639e-03, -1.20548736e-02, 3.52989673e-03,
       -1.17147844e-02, 1.43537577e-02, 5.20947799e-02, -5.87414543e-04,
       1.28295142e-02, 2.94227730e-02, 1.14316000e-02, 2.55094580e-02,
       1.49879148e-02, 8.02617427e-03, 8.74758977e-03, 3.23586836e-02,
       -2.47679967e-02, -2.14926898e-02, 2.51130909e-02, -1.12996763e-02,
       2.27003172e-02, -2.03863159e-03, -1.24531128e-02, 2.13001091e-02,
       8.03727750e-03, -2.50400766e-03, -1.22222407e-02, -1.25069066e-03,
       -1.65048577e-02, -1.93840042e-02, -4.72543156e-03, 2.68209837e-02,
       -2.06018109e-02, -4.71612578e-03, -1.49239758e-02, 6.55356143e-03,
       5.11524128e-03, -2.22740639e-02, -2.41362918e-02, 1.56475808e-02,
       2.27166992e-02, 4.24710140e-02, 5.23122922e-02, -7.69943651e-03,
       2.40958985e-02, 3.69524546e-02, 1.06165772e-02, 1.01989713e-02,
       7.24246376e-04, -2.26424262e-03, -1.02035627e-02, 3.50583307e-02,
       -1.77645572e-02, 2.09043510e-02, 2.41559539e-02, 2.87834536e-02,
       -1.81302279e-02, -1.26694804e-02, 1.33924009e-02, -8.93051084e-03,
       -9.16331133e-04, -1.26510917e-03, 1.69247221e-02, 2.26071067e-02,
       7.10983854e-03, -2.89682075e-02, 1.68376081e-02, 3.77024822e-02,
       -3.89480917e-03, 1.83966500e-03, -2.83010732e-02, -8.20731930e-03,
       1.00459186e-02, -2.08035074e-02, -2.10749377e-02, -1.91388652e-02,
       -5.59655577e-03, -1.70912743e-02, 2.69814488e-02, -9.10483301e-03,
       4.20895629e-02, 5.33478856e-02, 3.71486247e-02, 1.01195313e-02,
       1.00766979e-02, 8.96927062e-03, 2.98723532e-03, -1.77085605e-02,
       -6.78845774e-03, 3.35590616e-02, 3.84505242e-02, 2.92891059e-02,
       -2.17616484e-02, 2.37564975e-03, -2.13444373e-03, -1.65368710e-03,
       2.09260229e-02, -5.07923728e-03, -1.37789426e-02, -1.08000087e-02,
       -1.58293806e-02, -3.65776010e-03, -1.29539066e-03,
       -1.04274310e-03, -1.44540053e-02, -2.40400736e-03,
       -9.72439162e-03, -2.30797380e-02, -2.43498217e-02,
       -9.48039722e-03, -1.69047154e-02, 8.36221315e-03, 4.28951986e-04,
       1.62854902e-02, 1.98460277e-02, 1.17046991e-02, 2.33693775e-02,
       1.62415039e-02, 3.55394855e-02, -1.98485889e-02, 7.37858331e-03,
       -6.35027606e-03, 5.86919254e-03, 2.19219700e-02, 7.29285879e-03,
       2.54683639e-03, -3.00249667e-03, 1.63952988e-02, -3.51432003e-02,
       -3.39859985e-02, -1.12624955e-03, -2.00562477e-02,
       -4.43622144e-03, -3.17008831e-02, -3.20594758e-02,
       -8.99752509e-03, 8.03814363e-03, -1.93879101e-02, 3.06372950e-03,
       1.13849877e-03, -6.06091972e-03, -9.46221594e-03, -3.61152105e-02,
       -2.59057828e-03, -2.91422438e-02, -2.14731954e-02,
       -3.53078917e-02, -7.27992412e-03, 1.30241802e-02, 3.55490297e-02,
       1.72830261e-02, -5.46977576e-03, 1.24277510e-02, 2.97742616e-02,
       2.18911897e-02, 3.72067746e-03, -5.28070889e-03, 1.21437995e-04,
       6.67823525e-03, 1.78745855e-02, -2.21253261e-02, 2.49913502e-02,
       3.83203253e-02, 2.97882613e-02, -1.40558565e-02, -2.14703809e-02,
       -1.42953703e-02, 1.80289559e-02, 1.53240710e-02, -2.38556657e-02,
       -2.45824177e-02, -1.84719898e-02, 8.74334015e-03, -2.85396650e-02,
       -4.31823451e-03, 4.52820100e-02, -2.99764378e-03, 1.85708925e-02,
       1.79472403e-03, -1.69986486e-02, -1.86314657e-02, -2.10658144e-02,
       -1.83758531e-02, 2.16694130e-03, -2.86830906e-02, 3.07056960e-02,
       1.08445436e-02, -8.15063436e-03, 4.21319297e-03, 2.87317112e-02,
       3.77971828e-02, -1.70860514e-02, -1.70402154e-02, 2.78336788e-03,
       9.11390502e-03, 2.17556823e-02, -1.48014491e-02, -2.16830129e-04,
       2.57712100e-02, 1.95420496e-02, 2.99604586e-03, -3.91553948e-03,
       -1.31975776e-02, -2.22207252e-02, -5.38902404e-03, 1.32165784e-02,
       2.94792489e-03, -2.64385212e-02, -1.71516314e-02, 9.25389677e-03,
       2.77064787e-03, -1.20903086e-02, 5.36988769e-03, -1.79552715e-02,
       -1.68806966e-03, -5.24319988e-03, -4.34526429e-02,
       -2.78069396e-02, -1.10990396e-02, -1.02699623e-02,
       -1.46299368e-02, -1.20068230e-02, 1.88346524e-02, -4.18799510e-03,
       4.48931381e-02, 5.24896905e-02, 6.62406832e-02, 1.59020517e-02,
       1.35001121e-02, 6.05603913e-04, 2.15213355e-02, 3.04778293e-02,
       1.53112635e-02, 1.50641268e-02, 2.23956089e-02, 1.85926687e-02,
       1.73435751e-02, 2.62647793e-02, -1.41054709e-02, 1.70234442e-02,
       -1.16170030e-02, 1.07142134e-02, -2.02086139e-02, -3.99933308e-02,
       2.41996422e-02, 1.46100745e-02, 6.67532999e-03, 1.93023439e-02,
       8.25552642e-03, -9.69790015e-03, 5.99066354e-03, -2.90107075e-02,
       -3.95996310e-02, -4.08972055e-02, -4.47694436e-02,
       -1.47524131e-02, 3.33699100e-02, 1.75318401e-02, 1.38899209e-02,
       2.46350281e-02, 2.75962222e-02, 4.97657433e-03, 8.14644918e-02,
       4.81423847e-02, 4.22867350e-02, 1.68228634e-02, -2.36076433e-02,
       -5.15492074e-02, -5.29373577e-03, -1.98086649e-02,
       -9.54189338e-03, 3.60826924e-02, -1.21076880e-02, -1.09196240e-02,
       7.29709980e-04, 1.29608149e-02, -1.29083414e-02, 1.54214269e-02,
       1.15311448e-03, 1.27238994e-02, -1.22535857e-03, -8.37519392e-03,
       1.68183222e-02, 2.04586890e-02, 3.88273690e-03, -3.58751193e-02,
       -7.89170060e-03, 5.23602404e-03, 3.70507035e-03, -2.19894964e-02,
       -1.01497117e-02, -2.16064602e-03, -6.16857316e-03, 1.88168827e-02,
       -2.82310024e-02, 8.92792735e-03, 2.03765575e-02, 3.97192221e-03,
       2.03989856e-02, 7.56288832e-03, 6.16928621e-04, 4.32673171e-02,
       1.19039898e-04, -4.12430577e-02, -7.00371480e-03, 2.82625016e-02,
       -1.17798457e-02, 7.71596236e-03, -7.97223765e-03, -4.95844595e-02,
       -6.36947434e-03, 1.77714974e-05, -1.43064242e-02, 1.73999649e-02,
       4.88480069e-02, 3.14903408e-02, -5.64635731e-03, -2.41618361e-02,
       -2.90299486e-02, -1.46937957e-02, 1.53076556e-02, -1.45292226e-02,
       2.13404074e-02, 2.70453468e-02, 2.09588856e-02, 1.54187260e-02,
       -3.02929878e-02, 1.11450087e-02, 1.77650601e-02, 2.45654210e-02,
       -1.11313304e-02, -8.47600587e-03, 4.26647905e-03, 5.84771158e-03,
       -2.90986411e-02, -4.00685035e-02, -3.03504188e-02, 2.52731405e-02,
       -1.51264640e-02, -4.64654900e-02, -2.75606290e-02, 2.14819498e-02,
       -3.88074107e-02, -1.14924386e-02, -3.07305995e-02,
       -3.09261177e-02, 1.67133892e-03, -3.23743336e-02, -3.19592468e-02,
       1.25711858e-02, -1.44602917e-02, -1.00463554e-02, -3.40420716e-02,
       -2.48795245e-02, -1.75749306e-02, -1.30213108e-02, 2.40791403e-02,
       4.07542102e-02, 3.27556245e-02, 2.65177339e-03, -1.39616504e-02,
       -2.57228743e-02, -8.57931655e-03, -1.53756142e-02,
       -6.44165650e-03, -1.24941571e-02, -9.79281031e-04, 7.22308904e-02,
       5.19686677e-02, 4.73842444e-03, 2.30450532e-03, 2.99764285e-03,
       -5.37127890e-02, -3.24938968e-02, 3.83676961e-02, 8.11108500e-02,
       8.95139873e-02, 4.81750518e-02, -2.01314967e-02, 2.27053799e-02,
       4.10110243e-02, -5.57303103e-03, -1.99632756e-02, 4.06542197e-02,
       -4.13366128e-03, -2.33328082e-02, -1.81287006e-02, 1.83576047e-02,
       -1.57777350e-02, -4.25159559e-03, 1.59727205e-02, 3.63732502e-02,
       -6.03203056e-03, -2.19890419e-02, 3.99370212e-03, 1.54930791e-02,
       6.14177808e-03, -1.18925730e-02, 1.31101310e-02, 4.86401841e-02,
       2.85171252e-02, 4.29483391e-02, 1.83824915e-02, -2.11068727e-02,
       2.19547263e-04, 1.45044392e-02, -6.92156516e-03, -6.39673381e-04,
       4.72850874e-02, 3.02463714e-02, -4.71406570e-03, 2.14609001e-02,
       2.07634624e-02, 2.96534933e-02, 1.12595120e-02, -1.44291706e-02,
       3.16940770e-02, 6.41360283e-02, 3.09096165e-02, -1.86037105e-02,
       9.08647627e-02, 1.19731888e-01, 8.35196823e-02, -1.42610250e-02,
       -4.52434495e-02, 3.61239770e-04, 3.07686795e-02, -8.64302088e-03,
       3.49262264e-03, 7.54699335e-02, 4.55361679e-02, 9.49450582e-03,
       -1.12410747e-02, -4.85282168e-02, -6.63463771e-02,
       -1.90271959e-02, -4.70391028e-02, -3.69042940e-02, 8.64809677e-02,
       1.03183851e-01, 5.68336248e-02, 2.41957535e-03, -2.23189760e-02,
       -4.74284776e-03, 4.87652570e-02, -3.10218409e-02, -3.27944458e-02,
       1.08873062e-02, 2.48426059e-03, -4.11780551e-03, -1.04248486e-02,
       -3.50289047e-02, -2.11495850e-02, -1.59287862e-02,
       -5.07693961e-02, 4.23191451e-02, 1.01201117e-01, 1.85325984e-02,
       2.97196880e-02, -4.31026099e-03, 1.41521432e-02, 9.11469012e-03,
       1.76448412e-02, -1.66554768e-02, 1.56779829e-02, 2.81723682e-02,
       -1.89054646e-02, -1.00352475e-03, -1.31011521e-02,
       -1.63706858e-02, 1.77649427e-02, 1.17131276e-02, -3.31174186e-03,
       7.28899660e-03, 8.77182651e-03, -3.55916582e-02, -2.57720537e-02,
       -1.71502884e-02, 1.28028523e-02, 1.01204058e-02, 2.09209863e-02,
       8.92165396e-03, -1.79649033e-02, -2.13547144e-02, -1.85092986e-02,
       -1.27060330e-02, -1.72163006e-02, -2.71367170e-02,
       -1.61920879e-02, 5.36359567e-03, 4.85130697e-02, 2.80066170e-02,
       4.28423584e-02, -7.00653112e-03, 1.69051047e-02, -1.78896431e-02,
       -1.71955451e-02, 2.83931644e-04, 1.26030426e-02, 1.47722410e-02,
       1.68295056e-02, 7.37622753e-02, -2.25896691e-03, -1.99524846e-04,
       -3.01892255e-02, -4.26725205e-03, 8.63938872e-03, 3.26505378e-02,
       6.69374177e-03, 1.53397992e-02, 2.66148858e-02, -2.13878676e-02,
       -4.46257601e-03, -7.95081723e-03, -3.06501165e-02,
       -1.93348937e-02, 8.95884354e-03, 3.57124656e-02, 2.97688097e-02,
       6.98794238e-03, -2.94403993e-02, -2.37832107e-02, -1.54768741e-02,
       -3.96066122e-02, -1.61625315e-02, 1.18658124e-02, -1.27755105e-02,
       3.42541225e-02, 9.90678594e-02, 6.69052778e-03, 1.14170639e-02,
       -9.37727280e-03, 1.45867085e-02, 3.38197090e-02, 4.72988412e-02,
       4.45128046e-02, 3.54560241e-02, 6.43832088e-02, -2.06784848e-02,
       -4.07487601e-02, -3.41404392e-03, -1.46350255e-02, 3.13592628e-02,
       2.34797988e-02, 2.85739210e-02, 1.11348117e-02, 1.76204182e-02,
       -7.04616448e-03, -1.20178815e-02, -8.21174495e-03,
       -2.61367555e-03, -7.78787956e-03, 2.85444339e-03, -6.80912426e-03,
       -1.10225445e-02, 1.39384961e-03, -2.24826038e-02, -4.17025797e-02,
       -1.39371706e-02, 1.59719996e-02, -2.41187401e-02, 5.88669092e-04,
       1.16388674e-03, 4.53047603e-02, 6.01357147e-02, 9.22975410e-03,
       5.37836039e-03, 9.36208665e-03, 1.25024114e-02, 1.30935954e-02,
       1.59418043e-02, 3.79285924e-02, 3.44520360e-02, 2.54301596e-02,
       -1.16105890e-02, -1.80424680e-03, 8.91994499e-03, 2.89533772e-02,
       1.27244892e-03, 3.56006585e-02, 3.99101302e-02, -3.57525656e-03,
       8.46830662e-03, -1.39321685e-02, -5.84498234e-03, 3.34921409e-04,
       4.55200374e-02, 1.12372851e-02, 2.75725611e-02, -2.60063019e-02,
       -2.05326676e-02, -2.13351473e-02, -1.75712649e-02,
       -4.83623296e-02, 1.17460312e-02, 1.22515587e-02, -1.79545942e-03,
       7.52130244e-03, -1.69159360e-02, 2.55356468e-02, 6.31075725e-03,
       -2.02921405e-02, -1.42004229e-02, 1.91824638e-05, 1.91061087e-02,
       8.29481706e-03, 5.46284728e-02, 4.92991433e-02, 3.40520032e-02,
       -2.47464944e-02, -1.92326009e-02, -1.90066025e-02,
       -3.35640367e-03, 1.67310722e-02, -4.60403739e-03, 4.68803495e-02,
       2.16649417e-02, -2.31383070e-02, 1.82840545e-02, -2.32204068e-02,
       -3.77911106e-02, -3.03763580e-02, 4.07213462e-04, -1.04496535e-03,
       3.15648429e-02, -2.91866274e-03, 1.86522584e-02, 1.56926233e-02,
       -2.80260593e-02, -3.47368307e-02, -1.91279035e-02,
       -1.47494245e-02, -4.72707972e-02, 1.52510926e-02, -4.75642824e-04,
       1.15668215e-02, 6.50154427e-03, 1.10589918e-02, -1.39457043e-02,
       -3.57294679e-02, -6.41184812e-03, -2.51670200e-02, 1.63522027e-02,
       3.59617658e-02, -7.54554931e-04, -4.46920795e-03, -1.74270645e-02,
       -5.23043424e-02, -1.52395954e-02, -2.87558488e-03,
       -3.59391049e-02, -2.00039782e-02, 2.89645009e-02, 1.78470612e-02,
       2.23058462e-02, -4.80223028e-03, -2.04701256e-02, -3.76665853e-02,
       -2.26666760e-02, -3.47237103e-02, 2.46654470e-02, 8.72421917e-03,
       1.46487746e-02, 1.69839989e-02, -1.21469805e-02, -5.36793657e-02,
       -1.39335291e-02, -8.67055263e-03, -1.44001441e-02, 5.97911142e-03,
       2.03319099e-02, -1.82323512e-02, -1.44670263e-03, -3.22162583e-02,
       -3.36909182e-02, -9.51177627e-03, 1.43276583e-02, -2.15566028e-02,
       -1.00127691e-02, -1.30038010e-02, 6.98851887e-03, -7.68421032e-03,
       -4.49885838e-02, -2.23791692e-03, 2.19898764e-03, -2.17993162e-03,
       -1.63331442e-02, 6.74416358e-03, -1.73201282e-02, -4.24124388e-04,
       5.54319248e-02, -1.41752569e-03, -2.47877240e-02, 1.01199606e-03,
       1.11389849e-02, -2.79909396e-03, 3.87065229e-03, 4.87260427e-03,
       -1.20947312e-03, 2.86658853e-02, -2.37521753e-02, 9.88558214e-03,
       -8.78820755e-03, -7.98919005e-04, 5.23983268e-03, -1.05054547e-04,
       8.95944051e-03, -1.17010754e-02, -9.81860049e-03, -1.82368252e-02,
       -4.16163541e-03, -2.14582495e-02, -1.77820977e-02,
       -4.02842723e-02, -1.99387725e-02, 1.49254408e-02, -1.09951093e-03,
       1.95901226e-02, -3.58459689e-02, -1.78805627e-02, -5.63148456e-03,
       -3.41116339e-02, -2.10264586e-02, -2.21500499e-03, 1.54025126e-02,
       -8.00063554e-03, 8.76840577e-03, -4.01787497e-02, -2.00437661e-02,
       -7.14943046e-03, -3.11303847e-02, -3.60137783e-02, 7.66514242e-03,
       8.46813526e-03, 1.82611123e-02, 3.59606482e-02, -1.40525971e-03,
       -1.52050937e-03, 1.14493417e-02, -4.22832817e-02, -2.23890748e-02,
       3.88327688e-02, 3.80010605e-02, -2.44464874e-02, 3.19675840e-02,
       -1.89859308e-02, -1.18387407e-02, -1.97101757e-02,
       -1.03881618e-03, -3.20537086e-03, -5.12411352e-03,
       -1.35578588e-02, -2.00158581e-02, -1.07253473e-02,
       -1.83261093e-02, -3.90148461e-02, -3.81442755e-02,
       -5.67208789e-02, -2.04434879e-02, -2.11537406e-02,
       -3.62682343e-02, 2.93897688e-02, 7.07750022e-02, 3.05956248e-02,
       5.19242547e-02, 3.01189646e-02, 8.63157492e-03, 2.02546567e-02,
       3.80636938e-02, 1.51046012e-02, 1.21224988e-02, 4.19141017e-02,
       3.61854807e-02, 1.01738777e-02, 1.18649732e-02, 5.96927293e-03,
       1.27866003e-03, 1.44617623e-02, 5.74506773e-03, -5.36766741e-03,
       -2.94334870e-02, 6.02222374e-03, 3.04444078e-02, 1.49013484e-02,
       5.12180887e-02, 3.17201316e-02, 3.31678987e-02, 1.99786965e-02,
       -3.10692135e-02, -5.63272946e-02, -3.89636755e-02,
       -5.85712940e-02, -3.74976471e-02, -3.13040731e-03,
       -1.98285207e-02, -3.11505217e-02, -9.53611638e-03, 4.26627249e-02,
       4.87602465e-02, 4.37862091e-02, 5.35727702e-02, 6.99104518e-02,
       1.01641908e-01, 5.97298890e-02, 6.07050397e-02, 6.06483743e-02,
       -3.55077125e-02, -3.20174396e-02, -2.51794085e-02,
       -1.02787195e-02, 1.14151686e-02, 8.44946317e-03, 6.69685425e-04,
       -2.73041222e-02, -2.27097608e-02, 1.68707389e-02, 1.71879318e-03,
       1.53637528e-02, 1.61772650e-02, -1.97415017e-02, -3.98680987e-03,
       7.37880683e-03, -9.86704137e-04, 2.77875997e-02, -3.04059368e-02,
       -3.21148857e-02, 6.61320658e-03, 2.11902540e-02, -3.54929902e-02,
       3.50781513e-04, 4.62589320e-03, -4.52564582e-02, -3.08685582e-02,
       6.88239373e-03, -4.05912846e-03, 1.94537081e-02, 3.08439974e-02,
       -1.51881790e-02, 8.17539461e-04, 1.33650610e-02, 7.02715805e-03,
       1.76560953e-02, 1.99458376e-02, -3.64960954e-02, 3.92720016e-04,
       1.37233743e-02, -4.26725904e-03, 2.01940462e-02, 2.09524184e-02,
       -1.59492120e-02, -3.29645770e-03, 3.89670618e-02, -2.65356321e-02,
       -4.76225279e-02, -3.71333249e-02, 1.92552758e-03, -2.83774380e-02,
       -4.13446799e-02, -1.41246328e-02, 5.20214103e-02, 4.21840250e-02,
       -2.34336872e-02, -1.87098719e-02, 1.72254797e-02, 1.06192008e-02,
       -9.68760985e-04, -1.99895799e-02, -4.39220946e-03, 5.11086844e-02,
       2.79857237e-02, -1.10096699e-02, -4.70179655e-02, -2.71371007e-02,
       2.01821234e-02, -1.09498482e-02, -2.80564297e-02, -3.45392115e-02,
       4.36606370e-02, 2.50227880e-02, 3.33237392e-03, 5.81682893e-03,
       2.51329038e-02, 2.17119940e-02, 2.69408338e-02, -1.94295086e-02,
       -3.31481770e-02, 1.88208632e-02, -2.11927295e-02, -1.23014254e-02,
       4.92290258e-02, 2.02021468e-02, 1.45806884e-02, 1.16300685e-02,
       2.63845436e-02, -1.47274155e-02, -2.41198279e-02, -2.74310876e-02,
       6.47313967e-02, 7.51446262e-02, 3.22293043e-02, -2.41274275e-02,
       4.96467948e-02, 4.62552346e-02, 2.21693944e-02, -6.71441853e-02,
       -2.37321239e-02, -1.34512540e-02, 1.32353948e-02, 1.85031723e-02,
       4.05824967e-02, 4.86785173e-02, 5.03965169e-02, -1.96703989e-02,
       -2.63041910e-02, -6.00233674e-02, -4.39696526e-03, 6.44363463e-03,
       -9.35100834e-04, -5.92440180e-03, 3.54214311e-02, 5.68490513e-02,
       6.44692183e-02, -2.11746041e-02, 4.69044037e-02, 4.59092967e-02,
       -3.58296908e-03, 9.08824801e-03, -1.39873214e-02, -8.12584907e-03,
       1.44228777e-02, 4.71449643e-02, 2.31570285e-02, 1.04799652e-02,
       1.60313845e-02, 1.32638076e-02, 2.25521885e-02, 1.36971008e-04,
       -2.85315346e-02, 2.74710897e-02, 2.88743339e-02, 1.04146451e-02,
       4.09732051e-02, 4.15977612e-02, -1.93249453e-02, -3.82221267e-02,
       -1.13251898e-02, -7.29482528e-03, -1.33824078e-02, 4.54729870e-02,
       2.54272241e-02, 3.03328522e-02, 4.67460975e-02, 1.94430500e-02,
       -1.64902266e-02, 1.85592584e-02, 6.43790094e-03, 2.26085391e-02,
       1.89390704e-02, 5.52524952e-03, -3.05017978e-02, 3.58253457e-02,
       5.22484258e-02, 5.15961945e-02, 2.26371326e-02, 2.53414921e-02,
       5.50546683e-02, 4.54677604e-02, -2.16710940e-02, -4.33879383e-02,
       -2.24350058e-02, -1.63794123e-02, -1.19302915e-02, 8.93798843e-03,
       3.84240157e-05, 6.77230582e-03, -1.16962222e-02, -4.42673564e-02,
       1.52637381e-02, 4.29832079e-02, 5.49616739e-02, 3.65217291e-02,
       3.43507603e-02, 5.45983277e-02, 7.46795759e-02, 4.30773981e-02,
       -1.86231229e-02, -2.81348405e-03, -1.81115083e-02, 2.08572205e-02,
       -1.12640616e-02, 1.50581906e-02, -1.15884440e-02, -3.64956595e-02,
       -1.11547252e-02, -5.70166819e-02, -3.09742056e-02, 6.06188411e-03,
       -7.85737881e-04, 4.74780006e-03, -3.31263542e-02, 2.81256679e-02,
       3.50703555e-03, 2.64583509e-02, -4.13458645e-02, -2.79682018e-02,
       -2.18392387e-02, -7.00555136e-03, -5.53012546e-03,
       -3.01903971e-02, -2.46162768e-02, -1.86673421e-02, 5.83752932e-04,
       -2.25717127e-02, -1.30910911e-02, 2.53689177e-02, 3.96085307e-02,
       1.10555785e-02, -4.81242500e-02, 2.48009358e-02, -2.51197889e-02,
       4.20462899e-02, -3.58998589e-02, -2.04905942e-02, -4.05456731e-03,
       -8.30560923e-03, -1.33010391e-02, -2.76775435e-02,
       -1.87400281e-02, -9.66542773e-03, 8.99456907e-03, -3.73778790e-02,
       -1.39877591e-02, 2.89188727e-04, 9.47304827e-04, 1.61358695e-02,
       -2.63748178e-03, -1.29439286e-04, -3.40251892e-04, 1.09456666e-02,
       -7.84480665e-03, -3.26074436e-02, 3.22945230e-02, 2.82537797e-03,
       -1.17014265e-02, -2.69862246e-02, 1.86799548e-03, 2.36623008e-02,
       3.33110951e-02, -5.01392856e-02, -4.88879066e-03, 1.60437766e-02,
       -3.48689035e-02, -7.23143946e-03, -2.39420459e-02,
       -6.16868865e-03, 1.54544995e-03, 1.84981972e-02, -1.49036450e-02,
       -4.81425449e-02, 8.42591096e-03, -2.39390600e-02, -3.80673148e-02,
       -5.23399971e-02, -2.92744543e-02, -1.19799869e-02, 5.22220647e-03,
       -5.14658913e-02, -2.40619238e-02, 1.04774572e-02, -1.19542629e-02,
       1.55157121e-02, 1.64380930e-02, 2.64120996e-02, -1.02248523e-04,
       -3.39406263e-03, -3.89295705e-02, -9.73719347e-04, 1.28013687e-03,
       1.03891327e-03, 5.16414549e-03, 2.68759467e-02, 3.28734964e-02,
       -1.87485293e-02, -2.34948248e-02, -1.30907884e-02,
       -2.51251068e-02, -1.73338521e-02, 3.46277887e-03, 1.38056073e-02,
       1.30594242e-02, -2.70841969e-03, -6.85559073e-03, 4.51682089e-03,
       -1.19225867e-02, -2.70731635e-02, 1.20670293e-02, 1.53151192e-02,
       1.28445877e-02, 2.71412283e-02, -2.61705983e-02, -2.36413069e-02,
       -2.59827543e-02, -3.34982872e-02, -1.60729643e-02, 2.40406673e-02,
       1.80165563e-02, 2.44004000e-02, 2.39455439e-02, 6.12764135e-02,
       1.02906954e-02, 1.04478365e-02, -1.93193648e-02, -2.76669171e-02,
       4.76748362e-04, 2.00197124e-03, 1.57777071e-02, 3.85829695e-02,
       5.74169308e-03, 9.54194693e-04, 1.03982631e-02, -6.08045235e-02,
       -2.01371796e-02, 4.78992015e-02, 9.71468072e-03, 4.60631996e-02,
       4.15397249e-02, 6.41953293e-03, 1.96589716e-03, -1.32508297e-02,
       -1.01915235e-02, -3.82854380e-02, 1.11466609e-02, -3.20247468e-03,
       1.04841460e-02, 2.57947575e-02, -2.86875083e-03, 4.22101747e-03,
       -1.80806443e-02, -2.76427511e-02, -3.82258371e-02, 1.69110820e-02,
       -1.62076298e-02, -6.76837843e-03, -9.81399231e-03, 2.16724328e-03,
       -9.52435099e-03, 2.16582995e-02, -3.00687607e-02, 1.28021825e-03,
       4.51598875e-02, -2.46468224e-02, 3.73770902e-03, 2.51489002e-02,
       -3.99659537e-02, -4.03234959e-02, 1.72688868e-02, -2.05047447e-02,
       -1.40630798e-02, 2.60167662e-02, -4.89408756e-03, -3.31182103e-03,
       -2.12959666e-02, -2.70488374e-02, 1.74734835e-02, 2.92099528e-02,
       -2.89408788e-02, 6.98495889e-03, 3.16656567e-02, -4.46937308e-02,
       -3.16360481e-02, -1.54089453e-02, -2.69427355e-02,
       -1.66156609e-02, 4.85773645e-02, 1.90606024e-02, 2.49334355e-03,
       5.24061620e-02, -1.11594107e-02, -4.16710787e-03, -2.29678629e-03,
       -1.49124665e-02, -3.18487510e-02, 2.94500384e-02, -8.45928676e-03,
       1.41157238e-02, 5.07738329e-02, 1.38725974e-02, -4.21633795e-02,
       -1.31153017e-02, -1.33232027e-02, -3.55931791e-03, 3.78130674e-02,
       2.03024112e-02, -4.47790790e-03, 2.02926695e-02, -2.92531177e-02,
       -2.31308471e-02, -2.95164110e-03, -2.78916471e-02,
       -3.03968918e-02, 3.09120640e-02, 1.51561864e-03, -1.50846578e-02,
       3.93681414e-02, 4.64231241e-03, -3.45899574e-02, -1.70232430e-02,
       -5.97400330e-02, 6.68045925e-03, 4.31706160e-02, 2.17569107e-03,
       -5.92634082e-03, 4.71625924e-02, -5.68650663e-04, -2.15351768e-02,
       1.05276145e-02, -8.28347355e-03, -1.54136410e-02, 3.69924419e-02,
       -1.72796678e-02, 1.17014162e-02, 5.27721085e-03, -4.42001969e-02,
       -2.62248758e-02, -1.75639465e-02, -1.36072477e-02,
       -1.48088466e-02, 8.94558430e-03, -6.84718974e-03, -1.97246373e-02,
       2.63973027e-02, 4.69023036e-03, -1.08221518e-02, 2.20980030e-02,
       -4.21830080e-02, 9.39496676e-05, 5.56616038e-02, -1.49171287e-02,
       2.23294389e-03, -2.26465724e-02, -2.36577243e-02, -2.45188866e-02,
       5.70061570e-03, -3.33318077e-02, -3.60925309e-02, 5.25589706e-03,
       1.33569734e-02, 8.59175902e-03, -5.81416162e-03, -3.82024087e-02,
       -2.03580093e-02, 7.24960957e-03, -2.84510013e-02, -3.94951664e-02,
       -2.42495798e-02, -2.70244386e-03, 8.29734281e-03, 4.27188678e-03,
       -5.20089455e-03, -4.67580231e-03, -2.35534031e-02,
       -4.92212661e-02, -3.14637460e-02, 1.19018713e-02, 1.72569044e-02,
       1.02567105e-02, -2.64864024e-02, -6.26523867e-02, -3.43134515e-02,
       1.48525275e-02, -2.13620197e-02, -2.23783143e-02, 1.25782946e-02,
       8.73918366e-03, 5.04320413e-02, 2.73789447e-02, -2.92099360e-03,
       -2.94282604e-02, 1.04432795e-02, -2.21521454e-03, -1.21809505e-02,
       3.27650309e-02, 1.63243953e-02, -1.85095258e-02, 5.55209443e-03,
       -1.76675187e-03, 3.42347398e-02, -6.26031822e-03, 1.49279004e-02,
       -3.43859498e-03, 1.02997636e-02, 1.27536012e-02, -2.10165439e-04,
       7.64606800e-03, -3.84900719e-03, -2.47730338e-03, 1.60974786e-02,
       -9.08526243e-04, 2.14932580e-02, 1.67423058e-02, 1.80248804e-02,
       2.06036083e-02, 1.39672235e-02, -7.53993355e-03, 1.60821546e-02,
       -5.01274271e-03, 4.25060019e-02, 2.71994695e-02, 2.31252816e-02,
       -1.58923324e-02, 3.21555696e-02, 1.75189786e-02, -5.92103368e-03,
       -5.28662605e-03, 3.74240316e-02, 4.02480317e-03, 1.97695121e-02,
       2.97277607e-02, 7.91183300e-03, 2.15808898e-02, 4.59726304e-02,
       1.36713088e-02, 6.26830757e-02, 1.02821991e-01, 7.57612288e-02,
       2.78233439e-02, 3.74774449e-02, 4.60194908e-02, -3.23026441e-02,
       -3.13930884e-02, -3.87283564e-02, -1.06215551e-02, 1.19309286e-02,
       1.87315268e-03, -1.17403623e-02, -4.14755084e-02, -3.31386402e-02,
       3.49178053e-02, 4.11059186e-02, 1.57713685e-02, 7.84333646e-02,
       6.91330731e-02, 3.85122672e-02, -1.76716223e-02, 3.78765203e-02,
       3.68203335e-02, -2.09570210e-02, -3.43759358e-02, -4.67473492e-02,
       -3.06470357e-02, 1.09137520e-02, -3.31925526e-02, -5.35252467e-02,
       -5.62767498e-02, -3.68046463e-02, 2.32660286e-02, -2.10944619e-02,
       -2.02822648e-02, 3.80457081e-02, -1.19779864e-02, 2.31817346e-02,
       1.90542936e-02, -8.84729903e-03, 2.30314378e-02, 4.03174125e-02,
       -3.90816964e-02, -1.86733715e-02, 2.25174427e-03, -4.60584834e-02,
       -1.38660567e-03, -1.23248929e-02, -1.66063495e-02, 1.47814201e-02,
       3.83053124e-02, 2.18629465e-03, 9.49330255e-03, 6.35782927e-02,
       1.22418292e-02, 2.47749873e-02, 1.00688012e-02, -3.61926928e-02,
       2.61269696e-02, 6.00442523e-03, -1.68242548e-02, -1.30081933e-03,
       4.13479209e-02, 3.20288673e-04, 2.22087419e-03, -2.34615076e-02,
       -4.61190231e-02, 1.84903443e-02, 1.89922433e-02, -1.10253235e-02,
       -5.30713722e-02, -2.40525771e-02, 3.77962366e-02, 9.36802384e-03,
       1.48741286e-02, 1.05580292e-03, 8.99978448e-03, 2.00201645e-02,
       1.15116138e-03, -1.77376457e-02, 8.80002417e-03, -3.01463977e-02,
       9.85148363e-03, -2.36811154e-02, -5.35530224e-02, -2.18637139e-02,
       -8.17985274e-03, -2.44972836e-02, -3.29554155e-02, 5.28636808e-03,
       1.48287369e-02, 7.02890055e-03, 2.03346200e-02, 1.33223021e-02,
       -1.20482733e-02, 2.96349712e-02, 8.98150448e-03, -1.45038078e-02,
       1.00148953e-02, -1.36580039e-02, 7.18358671e-03, 5.52997505e-03,
       -1.27959754e-02, 2.75993198e-02, -8.80937651e-03, -2.91788485e-02,
       -4.33122786e-03, -4.58771735e-03, 2.45205592e-02, 5.41862436e-02,
       6.95616230e-02, 2.67346855e-03, -2.31113601e-02, -3.42753343e-02,
       -1.39611838e-02, 1.54527798e-02, 8.98752362e-04, -4.53050574e-03,
       5.94234467e-02, 7.22995028e-02, 8.37698653e-02, 3.98943536e-02,
       -2.19197851e-02, -3.83705422e-02, -1.80694517e-02,
       -2.10373551e-02, -1.20285386e-02, -3.33870277e-02,
       -1.05624022e-02, -4.12290804e-02, -1.55280000e-02,
       -1.62136983e-02, -2.44275182e-02, -1.50007959e-02,
       -3.17852944e-02, -1.68886557e-02, 1.26033379e-02, 3.61099914e-02,
       3.25770527e-02, 2.01703608e-02, 3.71487848e-02, 5.70849143e-02,
       1.80029627e-02, -1.91192944e-02, 1.74841024e-02, -2.11513024e-02,
       -5.95682487e-03, 3.37744132e-02, 3.23561877e-02, 5.78038841e-02,
       8.26955885e-02, 3.34419757e-02, 6.78572990e-03, 3.47704962e-02,
       4.83824350e-02, 3.61904241e-02, -2.91892415e-04, -5.39097236e-03,
       5.88356405e-02, 1.55311571e-02, -1.78827569e-02, -1.70158148e-02,
       2.34041568e-02, -3.19492184e-02, -1.64284501e-02, -1.23316478e-02,
       3.61482725e-02, 3.53909247e-02, 2.31761541e-02, 4.62616910e-04,
       -1.24398051e-02, 4.84213158e-02, 1.24998949e-02, -6.58154720e-03,
       -5.35442792e-02, -1.52932070e-02, 1.76763888e-02, 5.20789549e-02,
       2.02736948e-02, -9.58562922e-03, 2.31296959e-04, 8.86681005e-02,
       1.13962181e-01, 5.43999597e-02, -4.25902121e-02, -3.28219011e-02,
       -1.29663749e-02, -1.04075950e-02, -4.80948612e-02,
       -8.73038545e-03, -1.12072304e-02, 2.45500207e-02, -6.66147238e-03,
       -3.76845039e-02, -5.47152851e-03, 9.78006981e-03, -1.17347008e-02,
       -3.37690115e-02, 7.80664850e-03, 8.46448988e-02, 1.10747516e-01,
       5.66175878e-02, -6.09642686e-03, -5.73775098e-02, -2.04397310e-02,
       -3.58242691e-02, -4.76018004e-02, -1.54706957e-02, 4.47661057e-03,
       5.03240973e-02, 3.52180116e-02, -7.32299360e-03, -2.69938130e-02,
       5.12042409e-03, 2.08051391e-02, 2.23091090e-04, -2.00027712e-02,
       -1.26293022e-02, -1.49018848e-02, 3.86775583e-02, -1.20708020e-02,
       1.24692451e-02, 1.01154326e-02, -9.64734890e-03, -1.88451856e-02,
       -8.13504867e-03, -2.14123167e-02, -2.65346672e-02, 2.75879772e-03,
       -1.91617701e-02, -3.34598199e-02, -3.20854480e-03, 1.56791881e-02,
       -1.25011336e-02, -9.68945026e-03, 3.54156876e-03, 4.74083461e-02,
       9.23860148e-02, 3.42032239e-02, -6.09451020e-03, 2.61753378e-03,
       8.91345553e-03, -9.54755954e-03, 5.28520020e-03, -3.64413522e-02,
       -3.44359875e-02, 2.27027982e-02, 1.58529859e-02, -8.06585886e-03,
       -1.12147303e-03, -3.47532630e-02, -2.09558830e-02,
       -1.19400108e-02, -1.05326083e-02, -3.86287831e-02, 8.76324065e-03,
       1.26932487e-02, -3.09960712e-02, 3.84936854e-03, -1.32295517e-02,
       -1.26355216e-02, -2.42122151e-02, -3.60345654e-02,
       -2.78892983e-02, -5.13901422e-03, 1.80368815e-02, 7.62510207e-03,
       1.41898058e-02, -7.61317508e-03, -5.06835338e-03, -1.54000623e-02,
       -1.39338113e-02, -1.52577497e-02, 4.58812192e-02, 2.44735889e-02,
       -2.44474467e-02, 2.76794005e-02, 1.73995811e-02, 2.25330796e-02,
       -3.23812128e-03, -1.84268341e-03, 1.31628159e-02, 6.29038215e-02,
       1.16858482e-02, -2.37178374e-02, 1.05315670e-02, 1.02930292e-02,
       5.28552849e-03, -3.74829769e-02, -1.80343371e-02, -7.52277439e-03,
       1.28577240e-02, 7.32730608e-04, 2.04609125e-03, -3.47624277e-03,
       -1.02836089e-02, -2.25372333e-02, -1.81634687e-02,
       -3.27182226e-02, -9.96401906e-03, 2.36990284e-02, -2.39832103e-02,
       -9.85867530e-03, 2.24092435e-02, 1.31631820e-02, 1.64369913e-03,
       -2.46109013e-02, 1.00312700e-05, 2.11406406e-02, 8.88603032e-02,
       -1.03760762e-02, -3.23389703e-03, 9.33140516e-03, 3.25866323e-03,
       -1.60113536e-02, 8.22415948e-03, -3.58061530e-02, -3.25890854e-02,
       4.44795489e-02, 2.37563923e-02, -3.04059628e-02, 2.26679305e-03,
       -4.11909819e-02, -5.61174843e-03, -4.53950651e-02,
       -1.13267554e-02, -1.50554674e-02, 3.15004773e-02, 7.14907423e-03,
       -1.66904591e-02, -3.15131224e-03, -4.27886620e-02,
       -7.96988141e-03, -1.48225473e-02, -3.63212153e-02,
       -1.27298487e-02, -1.17027136e-02, -2.08841357e-02, 4.27979752e-02,
       2.29953155e-02, 6.22716593e-03, 1.21505335e-02, 4.37345309e-03,
       -1.04616852e-02, -2.03455985e-02, 4.79201823e-02, 6.63271248e-02,
       4.79763336e-02, 3.36893909e-02, -1.54958488e-02, 1.32959560e-02,
       -1.77597612e-04, -9.73416492e-03, -1.44318603e-02, 1.94008816e-02,
       4.43125293e-02, 2.75226310e-02, 2.55495850e-02, -1.65400840e-02,
       -9.60142165e-03, -2.66853068e-02, -2.77359243e-02,
       -1.41331060e-02, 3.32422974e-03, -2.42439099e-02, -1.34496193e-03,
       1.71455182e-03, -5.71569800e-02, -6.91661192e-03, -3.27253453e-02,
       -2.95284111e-02, -3.44862901e-02, 7.17285881e-03, -1.16608590e-02,
       5.87702468e-02, 4.95110713e-02, -7.05687702e-03, 2.87319459e-02,
       -8.79716594e-03, -8.98314267e-03, -2.29498670e-02, 6.67411461e-03,
       2.61984225e-02, 2.47215293e-02, 1.20933792e-02, -3.17813978e-02,
       6.52683992e-03, -6.06077956e-03, -2.60614101e-02, -1.72259081e-02,
       1.84356291e-02, 1.95213854e-02, 1.43949799e-02, 1.58825517e-02,
       -3.42955105e-02, -1.49876671e-02, -2.88599823e-02,
       -2.20934935e-02, -2.59736534e-02, 1.82721112e-02, 1.52340382e-02,
       2.29748301e-04, 1.34355081e-02, -2.40147077e-02, -2.05779951e-02,
       -3.59623358e-02, -3.99639122e-02, -1.40892798e-02, 1.98212042e-02,
       -3.66384373e-03, 3.66707370e-02, -3.57667240e-03, -4.21613362e-03,
       -1.66124175e-03, -5.41111149e-05, -3.32123786e-02,
       -5.18982811e-03, 2.90130153e-02, 1.13606174e-02, 1.23563902e-02,
       -2.14477014e-02, -4.30313572e-02, -2.43595690e-02,
       -8.41016416e-03, -4.97181788e-02, -3.70811634e-02, 1.65579449e-02,
       1.12055745e-02, -9.39039979e-03, 1.28947198e-02, 4.88996878e-03,
       -4.53105802e-03, 3.55997076e-03, -1.13405799e-02, 7.02051539e-03,
       5.66432290e-02, 1.05815539e-02, 2.54982971e-02, 2.00644470e-04,
       -1.58846900e-02, -2.24033836e-03, -1.17106549e-03,
       -4.62270482e-03, -6.99784327e-03, 4.50766310e-02, 3.66120860e-02,
       -1.78387631e-02, -2.55050119e-02, -3.68817151e-02,
       -1.35694435e-02, 3.29732476e-03, -3.13774645e-02, -1.72575768e-02,
       1.34590464e-02, -8.61352030e-03, 6.35012146e-03, -2.00629774e-02,
       -4.12877463e-02, 4.88396501e-03, -6.62308559e-03, 2.77502579e-03,
       -3.13847139e-02, -8.57405597e-04, 1.83205877e-03, 1.64915975e-02,
       2.05795132e-02, -4.42870967e-02, -1.44530181e-02, -9.27989464e-03,
       -1.27013037e-02, -2.33112648e-02, 5.55364974e-03, 2.32468490e-02,
       4.40458208e-02, 4.16267850e-02, -2.20611505e-02, -2.62164846e-02,
       -1.91664118e-02, 7.26255355e-03, -3.63340019e-03, 4.69300076e-02,
       3.52783464e-02, -1.46890236e-02, -1.33863389e-02, -5.46050780e-02,
       -1.40643651e-02, -2.58576106e-02, -1.04847532e-02,
       -1.53563553e-02, -9.26950853e-03, -2.50450596e-02,
       -1.96618512e-02, -1.04802605e-02, -2.32986771e-02,
       -1.93582326e-02, -3.59790102e-02, -3.79579328e-02,
       -1.53159006e-02, 1.12441666e-02, -1.41782565e-02, 1.27521688e-02,
       5.46537787e-02, 1.08387163e-02, 1.33268470e-02, 8.06365442e-03,
       6.04967549e-02, 7.69424438e-02, 7.42896646e-02, 3.79505381e-02,
       4.93998453e-03, 1.24844238e-02, -1.56458858e-02, -7.27395480e-03,
       1.02472240e-02, 1.99472606e-02, 4.45982069e-02, 2.97639966e-02,
       1.61090009e-02, -7.45454687e-04, 2.17140798e-04, -2.00455524e-02,
       2.24810261e-02, -2.02299226e-02, -1.17937690e-02, -1.16980486e-02,
       2.72715725e-02, -1.31587731e-02, -2.69525852e-02, -2.30037887e-02,
       -4.48343791e-02, -2.35699061e-02, 7.29845837e-03, -3.03532258e-02,
       -1.74081810e-02, -4.21001296e-03, -2.76889540e-02, 5.19686751e-02,
       4.07697894e-02, 2.16007717e-02, 9.42065120e-02, 5.58365472e-02,
       3.89237255e-02, 2.56398730e-02, 4.91110273e-02, 6.95518181e-02,
       4.48333286e-03, -4.27189544e-02, -2.24995576e-02, 2.84409560e-02,
       1.41654713e-02, -2.95517184e-02, -2.85266321e-02, -3.21729034e-02,
       -4.44192020e-03, 2.38239765e-02, 2.03220602e-02, 3.13193984e-02,
       6.87688589e-02, 4.03156616e-02, 3.12817618e-02, 1.80802699e-02,
       1.07771559e-02, 9.23195761e-03, -2.27792561e-02, -4.36207540e-02,
       -3.40796784e-02, 2.85893474e-02, 4.14732099e-03, -4.06141318e-02,
       -3.61994430e-02, -4.10154462e-02, -2.70605385e-02, 2.58486774e-02,
       -4.10620123e-03, 1.44699700e-02, 3.06574069e-02, -2.60679852e-02,
       -4.66570864e-03, 8.79647210e-03, -1.14341555e-02, 1.06975175e-02,
       -6.77924324e-03, -4.95577045e-03, 1.67333521e-02, 1.31003251e-02,
       -2.32767742e-02, 5.04341070e-03, -2.44486593e-02, -6.18598200e-02,
       -1.62341334e-02, 1.67842545e-02, -1.28643040e-03, -4.00627527e-04,
       4.51269448e-02, 1.58333138e-03, 2.51927599e-02, 2.02571537e-04,
       1.48807801e-02, 2.09433548e-02, -3.55365383e-03, -1.41891316e-02,
       3.98507668e-03, 3.99170853e-02, -3.99855478e-03, 1.07101602e-02,
       -6.10393146e-03, -2.94491258e-02, -1.70431770e-02, 7.44292652e-03,
       -9.18612629e-03, -2.22717151e-02, 1.52314650e-02, 2.11661160e-02,
       5.08024963e-03, -7.58204749e-03, -8.79113842e-03, -1.14632268e-02,
       1.38984499e-02, 1.96483191e-02, 9.77173541e-03, 1.98697243e-02,
       2.83874245e-03, -9.55500174e-03, -3.20455176e-03, -2.70865182e-03,
       1.89825576e-02, -3.45378532e-04, -3.73392063e-03, -2.08760146e-02,
       2.96587199e-02, 2.88816206e-02, 2.05597840e-02, -1.47496043e-02,
       -2.35841721e-02, 2.63281986e-02, 1.38817765e-02, 1.55924931e-02,
       -2.54674931e-03, 3.14554237e-02, -7.50397891e-03, 1.08315945e-02,
       4.27776668e-03, 2.32255999e-02, 3.70192789e-02, 1.47099076e-02,
       -1.06794508e-02, 8.72695353e-03, -3.01163702e-04, 3.24043282e-03,
       -7.02143507e-03, -2.18089926e-03, -4.22332576e-03, 2.74093673e-02,
       2.69230567e-02, -1.24594457e-02, 6.92078331e-03, -8.56996328e-03,
       -2.68870443e-02, 2.76036672e-02, 1.90562028e-02, 1.69587079e-02,
       3.07036992e-02, 1.20723266e-02, 2.12566238e-02, -2.89063025e-02,
       -6.97207521e-04, 8.61621834e-03, -6.68797037e-03, -1.94220804e-02,
       -1.45514486e-02, 2.08221823e-02, 1.64178815e-02, 9.00866464e-04,
       5.72773069e-03, 1.18711116e-02, 2.43872055e-03, -1.23203536e-02,
       -2.06288546e-02, -1.35652358e-02, 1.08899614e-02, 1.87233184e-02,
       -9.12758615e-03, -3.25842984e-02, 1.23999212e-02, 3.28398980e-02,
       -1.19427377e-02, -5.46334079e-03, 3.82771087e-03, 1.40595268e-02,
       3.08565766e-04, 2.10443735e-02, -5.28704189e-03, 1.30951498e-02,
       1.82088148e-02, -3.60929873e-03, -1.29861906e-02, -1.47747947e-02,
       -1.95377711e-02, 1.76601252e-03, -2.85601113e-02, -9.80227254e-03,
       7.87063595e-03, 2.64757518e-02, 9.39728110e-04, -2.14407071e-02,
       -1.02385841e-02, -2.85610538e-02, 2.13987306e-02, 1.60843134e-02,
       2.14455053e-02, -7.87340919e-04, -1.92059427e-02, 6.77561481e-03,
       1.24838995e-03, -5.12745418e-03, -5.18746674e-03, 1.18938284e-02,
       1.65758263e-02, 1.70323830e-02, 7.50255212e-03, 8.89715925e-03,
       8.61333683e-03, 2.95518041e-02, 3.39009427e-02, -1.04692802e-02,
       -2.12402493e-02, 3.49732442e-03, -2.64195935e-03, -6.99508144e-03,
       -1.93586629e-02, -8.01482704e-03, -9.09728755e-04, 2.86799669e-03,
       6.55978732e-03, 4.81509650e-03, 9.91799217e-03, 5.08521451e-03,
       -4.97993641e-03, 1.42206380e-03, -3.95562127e-02, -1.40875839e-02,
       -1.00528635e-02, -7.81970657e-03, 6.76905693e-05, 1.80073897e-03,
       -1.31261367e-02, -4.26756358e-03, 2.57867221e-02, -2.22257171e-02,
       5.08608762e-03, 3.28950919e-02, 3.06952726e-02, -2.79952335e-04,
       1.60550196e-02, 1.01732686e-02, -1.67937391e-03, -7.38872401e-03,
       -2.38329992e-02, -2.07995791e-02, 7.05709681e-02, 3.16945873e-02,
       -7.50890095e-03, -6.02281839e-03, -7.85571709e-03,
       -2.01385692e-02, 2.83263177e-02, -1.94506580e-03, -4.09126692e-02,
       3.27202082e-02, 3.04884762e-02, 2.85797007e-03, -7.97613524e-03,
       -7.83098489e-03, -1.10418005e-02, 2.47098575e-03, 4.58141294e-04,
       -5.04338089e-03, 5.02908081e-02, 5.39776534e-02, -7.95243215e-03,
       3.57237505e-03, -7.11069489e-03, -6.74368721e-03, -6.96531404e-03,
       -1.68900024e-02, -2.93176025e-02, 3.16624008e-02, 3.42760235e-02,
       -2.55120005e-02, -2.23832601e-03, 3.71659966e-03, 7.86574651e-03,
       9.70677764e-04, 1.60823707e-02, -1.13568427e-02, 4.28678617e-02,
       1.03298482e-02, -4.67362255e-02, 1.35481851e-05, 3.02385539e-03,
       5.65366354e-03, -1.04796318e-02, 2.40387525e-02, -1.62947997e-02,
       8.98884796e-03, -2.20842399e-02, 3.38377506e-02, 1.32924896e-02,
       -1.36559699e-02, 1.28690917e-02, 1.10209715e-02, 1.37902284e-02,
       -3.31204459e-02, 2.74469815e-02, 4.74218391e-02, 6.03723340e-03,
       1.73096731e-02, -2.71644164e-02, -2.40931194e-03, 1.08351633e-02,
       3.96922743e-03, -5.33059128e-02, 9.42800380e-03, -1.23127708e-02,
       -1.64665654e-02, 3.00042201e-02, 9.61510371e-03, 4.18796018e-03,
       1.37563702e-02, 2.75532231e-02, -1.15104439e-02, 4.86439280e-02,
       7.62237841e-03, 4.82519576e-03, 1.29865045e-02, 1.00261429e-02,
       -1.65186115e-02, 7.97499530e-03, -1.51521415e-02, -3.99429053e-02,
       1.22376336e-02, 2.22027972e-02, 1.90300420e-02, 2.01370139e-02,
       -1.40256686e-02, -1.20022669e-02, 2.95678396e-02, 7.30538229e-03,
       -2.55895816e-02, 2.45779771e-02, 1.37258172e-02, 5.87034551e-03,
       2.42960136e-02, -1.14980638e-02, -1.35148298e-02, 7.13132182e-03,
       -4.55850363e-02, -1.02376733e-02, -5.75919449e-03,
       -1.22340377e-02, -5.09940740e-03, 2.33056638e-02, 1.87002867e-02,
       1.59504674e-02, 1.60713196e-02, 1.12687433e-02, -1.91525463e-02,
       2.96148751e-02, 3.71606946e-02, 1.01423142e-02, -1.12963710e-02,
       -1.35735432e-02, 3.12446188e-02, -5.62420208e-03, 3.28200832e-02,
       -1.35257738e-02, 1.54578807e-02, 9.36807692e-03, 2.39999257e-02,
       3.04361992e-02, -9.67566215e-04, -8.78717564e-03, 1.75100490e-02,
       -2.70264084e-03, -7.27119856e-03, -2.67293919e-02, 5.77654166e-04,
       2.05964432e-03, 6.17193338e-03, 1.70402974e-02, 1.46424575e-02,
       -9.97516233e-03, 9.17768385e-03, -7.90999085e-03, -3.85679342e-02,
       2.92998459e-03, 5.08096861e-03, 3.85066814e-04, 3.95115605e-03,
       6.67859986e-02, 2.43885443e-02, 6.24166727e-02, -1.95584260e-02,
       1.56817976e-02, -5.54662256e-04, -2.06737109e-02, -2.45496538e-02,
       -1.25082601e-02, 2.38768626e-02, 4.11291532e-02, 4.92886528e-02,
       -5.01326798e-03, 9.65382345e-03, -1.59270931e-02, -2.89194076e-03,
       -1.40244225e-02, -4.07314161e-03, 3.39664966e-02, 7.85148330e-03,
       1.44256959e-02, -1.94489416e-02, -3.89323896e-03, 7.26247672e-03,
       -3.47803980e-02, -3.88578735e-02, -1.56710986e-02,
       -3.63988569e-03, -5.13273757e-03, -2.48715421e-03,
       -3.97979170e-02, 5.92094520e-03, 2.06327867e-02, -2.18023807e-02,
       -6.35967962e-03, -5.46389073e-03, 3.75602320e-02, 1.87655073e-02,
       3.79288271e-02, 6.62825583e-03, 4.38093469e-02, 8.24034214e-03,
       -2.30959281e-02, -5.41018788e-03, -2.88073346e-02, 1.76268909e-02,
       -1.22191501e-03, 5.45884250e-03, -7.16695050e-03, 3.07199303e-02,
       -3.36203608e-03, -1.67098530e-02, 9.81419798e-05, 3.73926666e-03,
       7.93027319e-03, -3.26611400e-02, 8.09339434e-03, -4.24308963e-02,
       -8.50902312e-03, 8.65857769e-03, -3.09653077e-02, 3.12740356e-03,
       -3.31571847e-02, -4.41671768e-03, -5.67557244e-03, 3.19462735e-03,
       -2.59296149e-02, -2.11613700e-02, -2.65226290e-02, 6.35836739e-03,
       3.10419183e-02, 7.52759632e-03, 2.60620676e-02, 9.13871173e-03,
       1.84064228e-02, -9.54262819e-03, 3.47328857e-02, 1.63064953e-02,
       -7.26594939e-04, 2.30633393e-02, 1.40510485e-04, 4.22695987e-02,
       1.91637240e-02, 1.50456680e-02, -1.48277255e-02, 2.34676413e-02,
       2.71730614e-03, -1.81182995e-02, 1.65549908e-02, -1.57668348e-02,
       2.87000183e-03, 5.59754204e-03, -1.80326831e-02, -2.78335027e-02,
       2.01006811e-02, -1.53238783e-02, -1.22991605e-02, 5.33356098e-03,
       -2.40973979e-02, -4.47936915e-03, -3.17418110e-03, 3.91699374e-03,
       -3.36512029e-02, 2.86623160e-03, -1.95741467e-02, 2.10957113e-03,
       1.91402454e-02, -1.60504580e-02, 3.17254886e-02, 2.08290294e-02,
       2.17272397e-02, 5.11267688e-03, 1.71752572e-02, 3.10125090e-02,
       -2.50640046e-02, -8.09521135e-03, 5.10548940e-03, 2.13070605e-02,
       -7.09254202e-03, 1.28150452e-02, 1.24932146e-02, 3.81466821e-02,
       1.31475134e-02, 1.12301670e-02, 9.13655665e-03, -1.12280240e-02,
       2.47238055e-02, 2.72022653e-02, 1.42600453e-02, -2.84479721e-03,
       6.12987578e-03, 4.04872728e-04, -2.65845172e-02, -1.91756729e-02,
       -2.91525014e-02, -3.88956554e-02, -1.65775586e-02,
       -3.12894513e-03, 1.19470134e-02, 1.21831916e-04, -6.68682798e-04,
       -6.84434082e-03, 3.23597640e-02, 1.28679303e-02, 5.52764237e-02,
       4.12410051e-02, 1.51918242e-02, 1.46587612e-02, 4.18737158e-02,
       1.34172793e-02, -1.64415315e-02, 2.23207548e-02, 1.34836575e-02,
       2.62794103e-02, 1.80648211e-02, -5.11372695e-03, 8.18606745e-03,
       1.59859546e-02, 7.29246205e-03, -1.84930898e-02, 1.99537701e-03,
       -2.42415834e-02, -1.75854396e-02, -7.95535930e-03, 1.73809670e-03,
       7.22966762e-03, -7.05269584e-03, -5.70557546e-03, -2.48804223e-02,
       -1.38657764e-02, -2.94989301e-03, -3.03259864e-02,
       -1.33304473e-03, -3.34697552e-02, -3.92368548e-02,
       -2.38271952e-02, -2.03099530e-02, 5.59801562e-03, 1.59524456e-02,
       3.01675592e-02, 5.77620938e-02, 1.90448351e-02, 2.32756883e-02,
       2.87126563e-02, 2.08849814e-02, 1.53639372e-02, -6.40894892e-03,
       9.08583403e-03, -8.14579986e-03, 1.21867210e-02, 1.22227590e-03,
       -1.35310758e-02, -1.12176256e-03, -2.67267376e-02,
       -2.56509539e-02, 1.19982511e-02, -1.66528206e-02, 2.60785110e-02,
       -2.24891212e-03, 5.05406689e-03, -3.60233039e-02, -2.27202522e-03,
       -1.58495065e-02, 2.64272783e-02, 7.80946296e-03, 5.16664423e-03,
       -1.30376425e-02, -1.29187806e-02, 5.68393199e-03, -2.91931015e-02,
       -9.07306001e-03, -8.43318878e-04, 1.47829438e-03, 2.05087177e-02,
       2.20690928e-02, -6.60969270e-03, -2.35222070e-03, -3.62908132e-02,
       1.00173326e-02, 1.38684697e-02, -2.77808681e-03, 1.38905449e-02,
       -2.05133371e-02, -2.83845719e-02, -1.01518100e-02,
       -1.22028301e-02, -1.88193191e-02, 1.39896525e-02, -6.83917012e-03,
       -3.20417397e-02, -4.14044783e-03, 1.88176502e-02, 1.47629632e-02,
       -1.39796152e-03, 2.99640819e-02, -2.72896636e-04, 2.06144881e-02,
       2.31882297e-02, -3.60839581e-03, -2.25663441e-03, -9.51146428e-03,
       -3.42484638e-02, -6.66508684e-03, 4.99224430e-03, 1.19711999e-02,
       1.98048204e-02, -9.34197684e-04, -2.22400986e-02, 7.34483683e-03,
       -4.14775190e-04, -1.31223341e-02, 1.69866183e-03, 6.23542210e-03,
       -5.08810207e-03, -3.00681713e-04, -1.03194257e-02,
       -2.32753418e-02, 1.41310245e-02, 1.23304510e-02, 4.34707757e-03,
       -6.88810460e-03, 2.73270695e-03, 3.57221020e-03, 2.55665518e-02,
       5.51210251e-03, -5.15509630e-03, 2.09106933e-02, 4.30757254e-02,
       -2.08254904e-02, 1.14999060e-02, 1.27998590e-02, 2.50755250e-03,
       4.19422006e-03, 2.04574302e-04, -1.11485701e-02, 2.37492286e-02,
       2.35414989e-02, -1.66427959e-02, 6.10104343e-03, 2.90538203e-02,
       9.66708641e-03, 1.13819586e-03, -2.14139298e-02, -2.24270672e-02,
       2.26272549e-02, -1.16595496e-04, 4.98009007e-03, -2.66533084e-02,
       -8.50610994e-03, 6.01330353e-03, 2.18124930e-02, 1.48668252e-02,
       -5.68825938e-03, -5.43538062e-03, 2.43324302e-02, 1.33995945e-02,
       4.36696550e-03, 9.20766871e-03, -1.19854398e-02, 2.53507332e-03,
       1.91766974e-02, 1.94584057e-02, 1.76127404e-02, 3.10185049e-02,
       -4.38852934e-03, -1.62370689e-02, 1.70352974e-03, 1.89031661e-02,
       2.37029865e-02, -1.30950026e-02, -9.61109996e-03, 1.03132077e-03,
       7.34524988e-03, 3.01265530e-02, 2.16402739e-04, 9.01335757e-03,
       -8.47148802e-03, 2.97206882e-02, 2.31032670e-02, 1.73328873e-02,
       -9.34354030e-03, -1.30655058e-02, -2.75702011e-02, 3.74500803e-03,
       5.53442631e-03, -8.72905273e-03, -1.03181591e-02, 7.64476508e-03,
       1.04575362e-02, -1.71526801e-02, -6.90652383e-03, -8.46300740e-03,
       9.71002039e-03, 1.42453993e-02, 4.14909562e-03, -3.72325121e-05,
       7.86087662e-03, 1.95877496e-02, 1.73745751e-02, -2.35590879e-02,
       -4.44555748e-03, 8.19358695e-03, 2.67302040e-02, 3.44896060e-03,
       5.99555299e-03, 4.29159682e-03, 2.92347977e-03, 4.54033120e-03,
       1.48249120e-02, -3.42847867e-04, 1.13752717e-02, 2.17058491e-02,
       1.65890418e-02, 1.03585897e-02, 7.77361449e-03, -3.61676957e-03,
       2.62817442e-02, -4.55048773e-03, 7.60670984e-03, -3.14598641e-04,
       -9.61598009e-03, -5.17822523e-03, -1.55274775e-02, 7.69062806e-03,
       1.63186584e-02, 3.00750049e-04, 2.89823045e-03, -2.98913009e-03,
       2.73251469e-04, 1.26698567e-02, -8.42846185e-03, -7.44077889e-03,
       -1.36646293e-02, 9.69614368e-04, -1.51240090e-02, 2.12167706e-02,
       -7.34775467e-03, -8.94356240e-03, -1.17538460e-02,
       -2.32133293e-03, -7.36559648e-03, -2.09101709e-03, 3.88843869e-03,
       3.32522322e-03, 6.38645468e-03, 1.28639024e-03, -1.97537299e-02,
       4.90563316e-03, -1.71233583e-02, 5.10540931e-03, -1.11855660e-02,
       1.27145275e-02, -9.38946288e-03, -3.44969961e-03, 2.45677773e-04,
       1.60211790e-02, 1.08411638e-02, -3.38381343e-03, 2.37155389e-02,
       3.43163474e-03, 1.84939113e-02, -1.00516994e-02, 2.62098713e-03,
       9.69384518e-03, 1.88532043e-02, 3.90985282e-03, -3.86024971e-04,
       -1.58099888e-03, -2.65017268e-03, -1.92252279e-03,
       -2.70350464e-02, -1.76770911e-02, 1.51387881e-02, -5.93071664e-03,
       9.18234326e-03, 2.12196503e-02, 2.01408826e-02, -2.43431702e-02,
       -2.41803890e-03, -4.63554338e-02, -6.01683464e-03, 8.06544535e-03,
       -5.80393011e-03, 6.89731096e-04, 1.55175934e-02, -1.95004269e-02,
       -4.22274098e-02, -1.98679864e-02, -4.68340963e-02,
       -3.94975068e-03, 3.04734539e-02, -1.29729090e-02, 2.19569653e-02,
       6.23810990e-03, 3.48323360e-02, -1.93947982e-02, -3.66612105e-03,
       1.88225247e-02, -1.29927024e-02, 2.48608980e-02, -9.68915038e-03,
       -1.52898859e-02, 1.27117783e-02, 1.27731720e-02, -4.45186831e-02,
       1.09730791e-02, 8.56210571e-03, 1.19720763e-02, 2.82972734e-02,
       -1.73870474e-02, -2.99326912e-03, 1.16062742e-02, 1.53666234e-03,
       -5.31295538e-02, -2.18450259e-02, 8.01548455e-03, -3.21742310e-03,
       6.04949519e-03, -3.65061127e-02, -5.73563874e-02, -1.04936783e-03,
       9.93624097e-04, -2.49565709e-02, -8.90235323e-03, 1.00243469e-05,
       1.12108542e-02, 2.81515121e-02, 1.71494707e-02, 1.62829831e-02,
       2.95682531e-02, 3.19099352e-02, -1.44371130e-02, 1.51967127e-02,
       1.27877174e-02, -2.81489529e-02, 1.65010355e-02, -1.93283483e-02,
       -4.25373996e-03, -1.01959417e-02, -1.68426968e-02,
       -1.78541951e-02, -7.88482092e-03, -3.67330387e-02, 3.78016531e-02,
       4.41472046e-02, -1.48390839e-02, -2.24395189e-02, 1.41216430e-03,
       1.77968070e-02, -2.84167938e-02, 6.61289028e-04, 3.18073295e-02,
       -1.30160619e-02, 2.92892233e-02, -3.96886542e-02, -3.83528471e-02,
       -1.52863832e-02, -1.35028725e-02, -4.56013307e-02,
       -9.95968934e-03, 3.67547502e-03, 8.21845513e-03, 3.05782668e-02,
       1.20021570e-02, 3.34063470e-02, 3.89860794e-02, 4.51385789e-02,
       2.39023957e-02, 1.13190431e-02, 5.08262403e-03, 1.16857328e-03,
       1.94172505e-02, 1.08255846e-02, 1.66234944e-03, -3.31817158e-02,
       1.34901458e-03, 2.06525605e-02, 7.17951218e-03, -1.59875657e-02,
       -1.80269685e-02, 2.04314888e-02, -4.01543826e-02, -8.64490774e-03,
       1.10036647e-02, 2.09876318e-02, -7.64220068e-03, 2.04106495e-02,
       -1.09990237e-04, 6.71065785e-03, 5.32182790e-02, -5.14540672e-02,
       -1.55045642e-02, -2.09763758e-02, -4.37859893e-02,
       -8.16074200e-03, -3.12580098e-03, -1.28389355e-02,
       -5.01272641e-03, 1.73782893e-02, 1.73133344e-03, 2.11570859e-02,
       -2.49487571e-02, -6.65931031e-03, 2.34687589e-02, 3.65907769e-03,
       -7.39933364e-03, -2.41227131e-02, 7.77357351e-03, -1.12884596e-03,
       -1.69735390e-03, 4.45053354e-03, -1.07338941e-02, 2.57240748e-03,
       1.71758309e-02, -2.61430014e-02, 2.74885446e-02, 4.25400659e-02,
       -2.97047943e-02, -2.58170860e-03, -1.92489550e-02, 2.27581728e-02,
       1.79754850e-02, 4.69073391e-04, -1.94010530e-02, -9.54780821e-03,
       2.07702089e-02, -4.09337841e-02, -8.99076369e-03, 2.71254443e-02,
       2.90321037e-02, 1.49603095e-02, 1.06446845e-02, -1.04482593e-02,
       -3.03171319e-03, 1.27125941e-02, -2.07404676e-03, 1.88135877e-04,
       -2.21678074e-02, 2.13661566e-02, -4.95280838e-04, 8.41406919e-03,
       1.10616833e-02, 2.77344720e-03, 2.08969470e-02, -1.66647732e-02,
       -1.01576634e-02, -9.74993780e-03, 1.78497471e-02, -2.01035999e-02,
       -7.53538078e-03, -3.00049819e-02, 1.72390994e-02, 1.60681177e-03,
       -2.86472384e-02, -6.80042617e-03, 1.73877645e-02, 3.17225419e-02,
       -6.82768598e-03, 1.01979943e-02, -5.49475430e-03, -5.41981659e-04,
       -7.31084123e-03, -1.54742105e-02, 9.27476119e-03, 9.44078434e-03,
       -2.04120018e-02, -3.32832783e-02, -2.07418241e-02,
       -3.46782245e-03, 1.52313979e-02, 3.69206369e-02, -6.94777025e-03,
       3.82267544e-03, 3.26785049e-03, 1.93208698e-02, 8.25086026e-04,
       8.68518651e-03, -3.06747481e-03, -8.99579842e-03, 1.47938812e-02,
       -6.55976217e-03, -9.28849913e-03, -1.87472459e-02, 2.09337436e-02,
       4.98139125e-04, -1.50866469e-03, -1.70636252e-02, -8.38110503e-03,
       5.20905713e-03, -1.72671452e-02, -1.15284901e-02, -4.70841391e-04,
       -2.91579589e-03, -1.94086656e-02, -6.79729879e-03,
       -1.85090061e-02, -5.05033834e-03, 9.08719935e-03, -1.39861682e-03,
       -2.44670119e-02, -4.50274013e-02, -1.70458145e-02,
       -2.96995249e-02, -1.46765281e-02, -2.02195477e-02, 1.85432322e-02,
       2.97515746e-02, 8.84329900e-03, 3.29801254e-02, -1.79079026e-02,
       2.01446731e-02, 5.51911443e-03, -2.09034909e-03, 1.54905003e-02,
       -1.56447161e-02, -8.17564875e-03, -9.97589901e-03, 3.27428244e-03,
       2.88258423e-03, -2.26379186e-02, 7.07944436e-03, -5.21037169e-03,
       -4.49513569e-02, 1.76806580e-02, 2.27236021e-02, -5.51849930e-03,
       3.89021286e-03, -5.24476729e-03, 8.05892609e-03, 7.99406506e-03,
       -2.59920303e-03, 9.89021268e-04, -3.41167003e-02, -1.00346999e-02,
       -3.93818766e-02, -2.50230841e-02, 6.51279604e-03, -4.73954119e-02,
       -1.88168641e-02, 1.30628822e-02, -3.02921794e-02, -2.89137033e-03,
       2.43157856e-02, 1.82496235e-02, 1.94152016e-02, 3.76041494e-02,
       3.09048165e-02, 1.93845052e-02, 7.51355616e-03, -1.99050438e-02,
       -1.55431526e-02, 1.69693530e-02, 3.59871462e-02, 6.79698482e-04,
       -7.39222439e-03, 1.92330044e-03, -7.87884463e-03, -7.28327315e-04,
       -1.17024453e-02, -4.93469974e-03, 9.42034461e-03, -2.44627800e-02,
       -7.46863149e-03, -1.01280573e-03, 1.60736460e-02, 1.15128430e-02,
       1.32549563e-02, -2.16445699e-02, 5.49097918e-03, 2.90156770e-02,
       1.98964946e-04, -1.97413098e-02, -4.89993673e-03, -1.44706089e-02,
       -8.87592603e-03, -1.73003562e-02, -2.64792666e-02, 1.65647697e-02,
       9.65567015e-04, 2.30426006e-02, 1.29183626e-03, -1.31550999e-02,
       -1.05714500e-02, 4.38592862e-03, 2.38092691e-02, 5.98545419e-03,
       1.08026003e-03, -1.58440582e-02, -7.63862766e-03, 5.71518345e-03,
       -2.34866282e-04, -1.20179206e-02, 9.98157542e-03, 7.11371051e-03,
       8.70540738e-03, 7.25121191e-03, 3.42868678e-02, 1.55646717e-02,
       2.91796471e-03, 1.50275184e-02, 1.04985107e-02, 2.09109671e-02,
       1.46748386e-02, -1.99870802e-02, -3.48165445e-03, -1.72628742e-02,
       -2.00691484e-02, -6.87352521e-03, 6.62964722e-03, 1.45036140e-02,
       2.96541513e-03, -1.82042941e-02, -1.47313927e-03, 1.04247769e-02,
       -1.90037768e-02, -1.08321840e-02, 3.80285941e-02, 7.68891815e-03,
       8.03705398e-03, -3.42015323e-04, -8.10806453e-03, 6.93350332e-03,
       6.41039060e-03, -3.02248616e-02, 6.09383336e-04, 9.03360825e-03,
       2.13393066e-02, -2.64099566e-03, -9.97326523e-03, -1.53334849e-02,
       3.43443602e-02, 1.21965529e-02, -3.68378032e-03, -1.43490704e-02,
       -4.60417243e-03, -7.49715231e-03, 3.55084091e-02, -3.07250712e-02,
       -1.85467303e-02, -1.68365135e-03, 4.70646750e-03, -9.42662079e-03,
       -5.63104963e-03, -3.12850662e-02, 8.69986974e-03, 3.47265936e-02,
       -3.05449311e-03, -3.59710604e-02, 1.60049107e-02, -1.47799242e+00 ]
